{
  "layers": [
    {
      "weights": {
        "v": 1,
        "dim": [
          8,
          2
        ],
        "data": [
          -1.4023547125917877,
          -1.256524978895261,
          -4.275863465544294,
          -4.128506281399068,
          3.4167337580639896,
          3.6540317360826515,
          2.6625268226080583,
          -4.840160578841096,
          4.862921978082944,
          -3.485342407707533,
          3.165988971934897,
          -4.599025511324242,
          3.734426723510923,
          -1.371041227437007,
          -3.7921359674902964,
          2.1642474050009266
        ]
      },
      "biases": {
        "v": 1,
        "dim": [
          8
        ],
        "data": [
          -1.1273972222555915,
          1.1312315316390409,
          -0.864153887238524,
          -0.43262987396489516,
          1.2464600070739094,
          -1.0016625499223315,
          -0.3127738273229209,
          -0.46033737718696327
        ]
      },
      "activation": "Tanh",
      "dropout": null
    },
    {
      "weights": {
        "v": 1,
        "dim": [
          1,
          8
        ],
        "data": [
          -3.939839383530504,
          -3.6854500493042557,
          4.996480786185447,
          5.648864557719189,
          -5.864077915464922,
          8.479498914812998,
          -3.140557274552421,
          5.437204378860451
        ]
      },
      "biases": {
        "v": 1,
        "dim": [
          1
        ],
        "data": [
          1.7782408275905437
        ]
      },
      "activation": "Sigmoid",
      "dropout": null
    }
  ],
  "input_size": 2,
  "loss_function": "BinaryCrossEntropy",
  "optimizer": {
    "Adam": {
      "learning_rate": 0.05,
      "beta1": 0.9,
      "beta2": 0.999,
      "epsilon": 1e-8
    }
  },
  "optimizer_states_weights": [
    {
      "m": {
        "v": 1,
        "dim": [
          8,
          2
        ],
        "data": [
          2.9579774725841232e-8,
          2.6881581102188726e-8,
          8.837049918273213e-9,
          8.141631768729077e-9,
          -3.88025214913391e-8,
          -1.664673852137732e-8,
          -4.6259563599455806e-8,
          3.63980540542238e-8,
          -3.6851680897942984e-8,
          2.112338117720849e-8,
          -6.370442457274282e-8,
          7.741608003107724e-8,
          -5.6501324076974935e-8,
          2.9282990971525967e-8,
          9.647483710284462e-8,
          -5.2366347806682325e-8
        ]
      },
      "v": {
        "v": 1,
        "dim": [
          8,
          2
        ],
        "data": [
          3.419690581024833e-9,
          3.4339763528136803e-9,
          4.493920774880369e-11,
          4.646562126799183e-11,
          8.218335138575448e-9,
          1.8234937025532779e-9,
          3.490086477403213e-10,
          2.662553517558289e-10,
          1.2049593327166314e-9,
          1.6373878644826039e-9,
          1.3901313446816418e-8,
          7.582279038972498e-9,
          6.64394136414336e-10,
          8.475620517124611e-10,
          6.593062590962891e-9,
          7.744074587562648e-9
        ]
      },
      "t": 10000
    },
    {
      "m": {
        "v": 1,
        "dim": [
          1,
          8
        ],
        "data": [
          2.254693115625599e-7,
          2.537510226725827e-7,
          -2.4887266129444485e-7,
          -3.987707285802185e-7,
          2.0464392868478748e-7,
          -4.014416388542372e-7,
          1.7243809110070977e-7,
          -1.835852192471326e-7
        ]
      },
      "v": {
        "v": 1,
        "dim": [
          1,
          8
        ],
        "data": [
          3.465743559697648e-9,
          7.840791142812149e-9,
          2.093369895759106e-8,
          3.179244865533544e-9,
          6.714932619260922e-9,
          1.1944120133787672e-8,
          2.6485216206122452e-9,
          3.9022281033205725e-9
        ]
      },
      "t": 10000
    }
  ],
  "optimizer_states_biases": [
    {
      "m": {
        "v": 1,
        "dim": [
          8
        ],
        "data": [
          3.96601738061274e-8,
          -9.157349075784872e-10,
          -1.909300157107523e-8,
          2.058465705192847e-8,
          -2.3554219627964137e-9,
          -1.3311874123369909e-8,
          -6.903519243905816e-9,
          9.178119326784836e-9
        ]
      },
      "v": {
        "v": 1,
        "dim": [
          8
        ],
        "data": [
          7.824739177794758e-9,
          9.679735345818159e-11,
          7.828506851716798e-9,
          6.635495714673161e-10,
          1.863636369346099e-9,
          1.750122091444167e-8,
          1.532615329882731e-9,
          1.2611829971397287e-8
        ]
      },
      "t": 10000
    },
    {
      "m": {
        "v": 1,
        "dim": [
          1
        ],
        "data": [
          -2.3030552914233733e-7
        ]
      },
      "v": {
        "v": 1,
        "dim": [
          1
        ],
        "data": [
          2.648844767339149e-8
        ]
      },
      "t": 10000
    }
  ],
  "regularization": "None",
  "training_mode": false
}