{
  "network": {
    "layers": [
      {
        "weights": {
          "v": 1,
          "dim": [
            12,
            4
          ],
          "data": [
            -0.38553461727226535,
            0.3587798076878485,
            0.06607399907170547,
            1.1662985282013763,
            -0.05376741931191857,
            0.16183941689817363,
            -0.4022184404790125,
            -0.29485889288352635,
            0.37628337628796676,
            1.9562568850780133,
            -0.768188164352074,
            -0.0565393745552504,
            -0.9800691083108573,
            0.34656715188187426,
            -0.5387502245419257,
            0.18224817931051973,
            0.013406252053843826,
            -0.18390851280969933,
            0.6463339370045174,
            0.5401520888215036,
            0.21643105819284292,
            -0.47859926677556414,
            0.4156457062408443,
            0.5519190459327311,
            -0.2421284596900087,
            -1.7958322221889915,
            0.1782000207388038,
            -0.2164545740602346,
            -0.004625510934420825,
            0.07445413625762827,
            -0.6442978872650282,
            -0.37126275611872867,
            -0.8846557175936972,
            -0.5680402250940708,
            -0.053425662421204244,
            -0.5549069717311949,
            -0.25844160583652087,
            0.4134625091649191,
            -0.48699768761195183,
            -0.5137721150936887,
            0.07220240530385841,
            -0.020657758390874935,
            -0.6972481641522501,
            -0.41960429757253787,
            0.48568529148697226,
            0.00592960051864428,
            -1.3380170479327838,
            -0.1841389508805772
          ]
        },
        "biases": {
          "v": 1,
          "dim": [
            12
          ],
          "data": [
            -0.7771029140442879,
            0.09600088131547949,
            0.09126920082950815,
            -0.7818863859458683,
            -0.7132978979947369,
            -0.046318700024944356,
            -0.2326982276260695,
            0.5327413209926997,
            -0.8043350501664132,
            0.539969775838747,
            0.47656131542524516,
            -0.33823777976819763
          ]
        },
        "activation": "Tanh",
        "dropout": null
      },
      {
        "weights": {
          "v": 1,
          "dim": [
            8,
            12
          ],
          "data": [
            0.33309526720691374,
            0.43257385651096175,
            0.44657731920899435,
            0.8115748142151445,
            0.23704989538086785,
            -0.5459246338538306,
            -0.5095965487230536,
            0.5172940051804723,
            0.6285491081476646,
            0.6391582677446124,
            -0.11474555311897713,
            0.6351566587912766,
            0.11363625918831904,
            0.18576001449272017,
            0.5964229012626263,
            0.3859229761913262,
            -0.46169463215867257,
            -0.42743203824100084,
            -1.3259403682058286,
            0.7956762976126216,
            -0.2541676115862896,
            1.3849152224031869,
            0.5804087975072083,
            0.11392517908171992,
            0.9393182795415606,
            -0.2707248630661783,
            -0.30812415328124054,
            0.5719044283438247,
            1.1781599897344373,
            0.20754745782476638,
            -0.4516347998579233,
            -1.3490874892789277,
            0.6435367698666035,
            -0.7498524803128208,
            -0.7729774582452873,
            -0.11384778827951572,
            1.0363722166128193,
            -0.46037827576994705,
            0.0518187550801,
            0.19474264493931878,
            0.9499154008665028,
            0.10576938094739428,
            -0.4803277813496458,
            -1.0497525498925784,
            0.10401790030002851,
            -0.3976154640365279,
            -0.6748381352339602,
            0.33937030078874997,
            -0.614754542226171,
            0.12820084010448676,
            0.5554403997165299,
            -0.26982405511120683,
            -1.0021504353581172,
            -0.5018006694642199,
            -0.978776333629104,
            1.037717160646031,
            0.009814833880230644,
            0.6899478559382688,
            0.9533744313874277,
            0.15690708360371022,
            0.5772905573034646,
            1.0369418214505348,
            0.5108576636818574,
            0.5230425599999442,
            -0.09154155664221342,
            -1.155932811550133,
            -0.17943827786740063,
            0.18336795441102607,
            0.30293208531946164,
            0.21753256110758626,
            0.00044367158804689246,
            0.6594110941427325,
            0.7228239239908182,
            -0.06479103666961937,
            -0.23946033882661658,
            0.34632671936676773,
            0.7590997114443052,
            0.3004957402087126,
            0.303034718926466,
            -0.8329708419049914,
            0.10950523398902441,
            -0.3171466701959444,
            -1.38486225580249,
            -0.2586307412367834,
            0.1129412610365031,
            -0.3944320163233859,
            -0.6449479939637446,
            -1.1277628838078233,
            0.010445832074121033,
            0.6388252791289081,
            0.4541055553384515,
            -0.4246606303429621,
            -0.20554122950525197,
            0.10856187178873763,
            0.2439650353146316,
            -0.9384888615144914
          ]
        },
        "biases": {
          "v": 1,
          "dim": [
            8
          ],
          "data": [
            -0.3739874303112559,
            0.23777764250162253,
            -0.4259092410221001,
            -0.2368090410240802,
            0.30098994749961094,
            -0.25207470531360415,
            -0.16660356203024804,
            0.19686390292410083
          ]
        },
        "activation": "Tanh",
        "dropout": null
      },
      {
        "weights": {
          "v": 1,
          "dim": [
            3,
            8
          ],
          "data": [
            1.1695222821921145,
            0.9172902866840849,
            -0.45087161475213755,
            -0.20529441185215064,
            1.058087870953815,
            2.0558807688760705,
            -0.5384458202602074,
            -1.144791770311593,
            -0.8572370750077887,
            0.2162790919143657,
            -0.7820005339717946,
            -0.7645474672422525,
            0.7667239007872628,
            -0.9954744585161103,
            -0.7126506097494918,
            0.5850880424509447,
            -0.2371052043987313,
            -1.4236653813611957,
            1.681957855347989,
            1.253760979051204,
            -1.3710973899129097,
            0.33537217991755913,
            1.1850201673560024,
            0.7997742576329328
          ]
        },
        "biases": {
          "v": 1,
          "dim": [
            3
          ],
          "data": [
            0.03638976571535509,
            -0.15798693448328213,
            0.15695242408019325
          ]
        },
        "activation": "Softmax",
        "dropout": null
      }
    ],
    "input_size": 4,
    "loss_function": "CategoricalCrossEntropy",
    "optimizer": {
      "Adam": {
        "learning_rate": 0.01,
        "beta1": 0.9,
        "beta2": 0.999,
        "epsilon": 1e-8
      }
    },
    "optimizer_states_weights": [
      {
        "m": {
          "v": 1,
          "dim": [
            12,
            4
          ],
          "data": [
            0.010236508938788934,
            -0.005317261989046761,
            0.011790334459260412,
            0.01004420218930516,
            -0.0030188937497058746,
            0.001703857759991504,
            -0.0034597976054971937,
            -0.003184390739576872,
            -0.004169062610207879,
            -0.000670356330751819,
            -0.003355832664894929,
            -0.003861492044209272,
            0.0005990330915812274,
            -0.00012042267551898349,
            0.0009972243387937,
            0.0007720598628037878,
            0.014062070207067595,
            -0.008728971574561033,
            0.01468934583518757,
            0.015357860751373076,
            0.001908959401619033,
            -0.0004767905118726896,
            0.00201730235868206,
            0.002504582605624543,
            0.0026397902797513644,
            0.0011528041556242608,
            0.0012824200432836903,
            0.001976518174697564,
            -0.015653758321363915,
            0.009085385236059125,
            -0.016412476059065692,
            -0.016934786643886788,
            0.0009820190048094703,
            -0.0008047489897404008,
            0.0018803554604361788,
            0.001477117496205869,
            -0.007395003065274561,
            0.0034995121641909687,
            -0.008508741779102094,
            -0.00876019822224715,
            -0.01284780455984149,
            0.008568843353508266,
            -0.011415476146779173,
            -0.013728942747917909,
            -0.0005360089206022839,
            0.0007320495221920624,
            -0.0002898359115621957,
            -0.00044957553733998497
          ]
        },
        "v": {
          "v": 1,
          "dim": [
            12,
            4
          ],
          "data": [
            0.0018876835506334937,
            0.004131731541492947,
            0.004042893023021946,
            0.002618138915999319,
            0.00012338488368436113,
            0.00026400420335120797,
            0.0002709045066175639,
            0.00018380806465885036,
            0.00004567764766673212,
            0.000013011415000923867,
            0.0000593317464046633,
            0.00006469619495928453,
            0.000017541812312547454,
            0.00005041833643873152,
            0.000055931934384463164,
            0.00005704505811752623,
            0.002866995193516807,
            0.007479364649665481,
            0.00635820104632852,
            0.0039045534792817535,
            0.00010876693398370047,
            0.00011932661519075678,
            0.00019154374648082642,
            0.00014595829698670402,
            0.000028490039845918116,
            0.00003270291254925832,
            0.00005906603956630026,
            0.00006244046072592946,
            0.003479376372745818,
            0.010080599964910853,
            0.008077274699373195,
            0.004992976446445045,
            0.00002747274810515828,
            0.00042059383220556946,
            0.00016487754332486385,
            0.00008994936320706183,
            0.0007854889985663591,
            0.0012067316987025656,
            0.0016652908008810703,
            0.0012123661990160234,
            0.0026926727565934087,
            0.007406909943177671,
            0.006026651726183535,
            0.003597268069492052,
            2.17702179454448e-6,
            7.6206212290079335e-6,
            3.868661421883978e-6,
            3.5867277810159964e-6
          ]
        },
        "t": 976
      },
      {
        "m": {
          "v": 1,
          "dim": [
            8,
            12
          ],
          "data": [
            -5.780460022428505e-6,
            -0.00003206422308078876,
            -0.00001549825201382272,
            -0.00007459009489342886,
            -4.45900598072164e-6,
            0.00005292943071646539,
            -0.00001776786047980125,
            -3.127205053408234e-6,
            -0.000053505427302126574,
            -7.973811373256359e-6,
            -0.000010032585742311172,
            -0.00007921091298180667,
            0.00013351304407780204,
            0.0006207192404136921,
            -0.00009684783705206555,
            0.0014243251046132715,
            -0.00008167007062065732,
            -0.00095693619703974,
            0.0010191217316721864,
            0.00021384439244654218,
            0.0016236128696923168,
            0.00033643884632212175,
            0.00036810052805625606,
            0.001329836029245959,
            -0.0029010879089006072,
            -0.0037142784442659926,
            -0.004117327781115424,
            -0.007929635713121434,
            0.0011332771818003341,
            0.0058881572435496065,
            0.0021248431116829792,
            -0.0015245287370646502,
            -0.007764019892381149,
            -0.0030824553344810856,
            -0.0019921444422911303,
            -0.006747144046864359,
            -0.0024200671326962144,
            -0.0028336519430325505,
            -0.002432666169147998,
            -0.0060449002526153225,
            0.0009083711676118115,
            0.004492359902548435,
            0.0005688595950464263,
            -0.0011671567189535798,
            -0.00551155271218336,
            -0.002527680420031564,
            -0.0014372691051592519,
            -0.004900067657325519,
            0.001075734250988254,
            0.0017746139287386268,
            0.000318400482506619,
            0.004138299394456608,
            -0.00019705701711165253,
            -0.002965370025098123,
            0.0021032900929439935,
            0.00040842900619986633,
            0.003931873760650993,
            0.0014004781400211532,
            0.0006192268826553725,
            0.003195228766649972,
            -0.000014507647634823864,
            -0.00004885302050129125,
            -0.000013076036623204374,
            -0.0001279880148654703,
            -0.000016812327171161512,
            0.00008289579660510969,
            -0.000049903573017586586,
            2.4763726613307638e-6,
            -0.00010905871086132855,
            -2.9207416982299035e-6,
            -0.000012116399913445965,
            -0.00013389450067350885,
            -0.0010626629169463884,
            -0.0019040398101758211,
            -0.00036137154724541015,
            -0.003586911655599346,
            0.0006221997019449767,
            0.003169428469412303,
            -0.00046008400941578795,
            -0.0003934074175566837,
            -0.00267340447498923,
            -0.0021445057632687734,
            -0.00030584907198927784,
            -0.0022492129485610123,
            9.056733015128784e-6,
            9.35963793101275e-6,
            -3.6630793338681067e-6,
            0.00002283153738410486,
            6.400635506476166e-7,
            -0.00001542418773279222,
            2.381772805608221e-6,
            1.732835237486582e-6,
            0.000012086247070089022,
            6.39206374682728e-6,
            8.613019394116706e-7,
            0.000016949265536365448
          ]
        },
        "v": {
          "v": 1,
          "dim": [
            8,
            12
          ],
          "data": [
            8.830674706410217e-6,
            1.362105797999246e-6,
            9.198476222244768e-6,
            5.142174425809388e-6,
            5.14777642333638e-6,
            3.976954077343268e-6,
            1.1725951336950177e-6,
            2.7680467818260856e-6,
            3.201071546792511e-6,
            2.438482618764305e-6,
            2.746120758822734e-6,
            0.000015725018236078923,
            0.000041445658274589684,
            0.000018451106548058316,
            0.000045470920868826936,
            0.000043131301105803645,
            0.000019767137758787138,
            0.000034916441720724826,
            0.000011072439843888963,
            5.498301261935858e-6,
            0.000039379243751874076,
            0.00001393020702043606,
            5.489473527115911e-6,
            0.00009387113753585496,
            0.00027000006509627294,
            0.0005529684690386458,
            0.00136091516939233,
            0.0016066494247627412,
            0.00007972686207114058,
            0.0010751443129769674,
            0.000910728780331272,
            0.00004858873660068345,
            0.000987025053893469,
            0.0004961876769081495,
            0.000042346895271502844,
            0.0016640293995988577,
            0.00012952264405668298,
            0.00030616488490266177,
            0.0007304291001433539,
            0.0009061865691143282,
            0.00004169863422341481,
            0.0005888826320792511,
            0.00046695850017370005,
            0.00002457506026035359,
            0.0005983660555913976,
            0.0002625079684900752,
            0.000021767537405521166,
            0.0009317525975657643,
            0.0000673207916221755,
            0.00012159890953542077,
            0.000250543464229221,
            0.0003398372395684449,
            0.000026473276845621147,
            0.00021074708761424874,
            0.00012180342304408552,
            0.00001134692736641292,
            0.000254329631594463,
            0.00008054755083445609,
            0.000010697178793341122,
            0.0003951667837191249,
            0.000019917531699086468,
            3.6537736330248723e-6,
            0.000025134926352161232,
            0.000037485152720479544,
            0.000029634678855422327,
            9.273349611066948e-6,
            6.179065590878678e-6,
            0.00001821782128992662,
            0.00002011150470093661,
            6.627446373305362e-6,
            0.000010588638471848417,
            0.00006386161589806984,
            0.0002650315474867186,
            0.00041238057098285866,
            0.0010695937459747143,
            0.0012814914011495151,
            0.00006612247801071664,
            0.0008295563358499844,
            0.0006955099372146005,
            0.000029163132302455522,
            0.0008100097627637294,
            0.00037794016453170245,
            0.000022730737820625242,
            0.0012945987806332298,
            0.000012916309319320459,
            1.4786996142924966e-6,
            0.000012058557551042045,
            4.876394598822269e-7,
            9.82512606485659e-6,
            4.763246001006625e-6,
            3.428992390274383e-7,
            7.674357183230343e-7,
            1.6599809038652332e-6,
            4.420727554595558e-6,
            1.1062168226727001e-6,
            0.00001404426245430936
          ]
        },
        "t": 976
      },
      {
        "m": {
          "v": 1,
          "dim": [
            3,
            8
          ],
          "data": [
            -0.0005557890845689114,
            -0.00031875209645568984,
            0.00012340525790359707,
            0.00014581872005388306,
            -0.00018773033659802416,
            -0.0005590516675282879,
            0.00016667381922334354,
            0.0005570927279667522,
            0.0040830561221431,
            0.002176735547806899,
            0.0016987806375488362,
            0.0008150256283479135,
            0.0014114440302642473,
            0.004086409998709765,
            -0.001525827922924012,
            -0.004075695694864981,
            -0.0035272670375741904,
            -0.0018579834513512156,
            -0.0018221858954524336,
            -0.0009608443484017978,
            -0.0012237136936662277,
            -0.0035273583311814785,
            0.0013591541037006683,
            0.0035186029668982308
          ]
        },
        "v": {
          "v": 1,
          "dim": [
            3,
            8
          ],
          "data": [
            0.00011295199393448487,
            0.00008549242959228673,
            0.0002183421759592797,
            0.000028199074680278917,
            0.00011259587742736057,
            0.00006062047156703305,
            0.00006158270759842599,
            0.00025939462775926816,
            0.0006852411142063627,
            0.0005712167625016473,
            0.00018546321108290536,
            0.00014216417150037758,
            0.00040829760906219256,
            0.0006969946634021246,
            0.00010714395608522199,
            0.0008101190818998273,
            0.0006755954170785807,
            0.0005540465058403936,
            0.0002477379677662211,
            0.00014405827785809284,
            0.00042650893501584874,
            0.0006669972221231043,
            0.00009648707392136397,
            0.0007093140244333754
          ]
        },
        "t": 976
      }
    ],
    "optimizer_states_biases": [
      {
        "m": {
          "v": 1,
          "dim": [
            12
          ],
          "data": [
            0.017530385392892357,
            -0.00533793943559188,
            -0.00543828173704714,
            0.0014172747073893073,
            0.02488152344519696,
            0.0035491177217080836,
            0.0023267789984817897,
            -0.027615264704061882,
            0.002794872092168015,
            -0.01380190252067847,
            -0.021341680358554705,
            -0.0007091793207083167
          ]
        },
        "v": {
          "v": 1,
          "dim": [
            12
          ],
          "data": [
            0.007869866609395901,
            0.0005087734633858234,
            0.00011682402120838339,
            0.00011874796637309326,
            0.012289153059295196,
            0.00032753092008250544,
            0.00009779639964646608,
            0.015586903359238496,
            0.0003094252615362098,
            0.003289147466765368,
            0.011555428240274467,
            5.05952409094736e-6
          ]
        },
        "t": 976
      },
      {
        "m": {
          "v": 1,
          "dim": [
            8
          ],
          "data": [
            0.00007868193269515181,
            -0.0017385366743813313,
            0.008619591995854695,
            0.006433208116975212,
            -0.004765554136393757,
            0.00016164527302571123,
            0.004040777020054997,
            -4.203478905116895e-6
          ]
        },
        "v": {
          "v": 1,
          "dim": [
            8
          ],
          "data": [
            0.000026502803050698874,
            0.0001056086737144417,
            0.002029215607525272,
            0.0011307539490530193,
            0.00048031104173270494,
            0.00010634165459247216,
            0.0015565376950800289,
            6.531296766772875e-6
          ]
        },
        "t": 976
      },
      {
        "m": {
          "v": 1,
          "dim": [
            3
          ],
          "data": [
            -0.0000987892089501204,
            -0.003469366850918405,
            0.0035681560598685297
          ]
        },
        "v": {
          "v": 1,
          "dim": [
            3
          ],
          "data": [
            0.00006348084980339582,
            0.0007931147605090706,
            0.0007541228575725192
          ]
        },
        "t": 976
      }
    ],
    "regularization": "None",
    "training_mode": false
  },
  "metadata": {
    "accuracy": 1.0,
    "test_samples": 45,
    "trained_at": "2026-01-26 18:40:52"
  }
}