{
  "network": {
    "layers": [
      {
        "weights": {
          "v": 1,
          "dim": [
            8,
            4
          ],
          "data": [
            1.3047225120820827,
            0.18697044119565912,
            -0.3969659215784017,
            -3.1853293434885255,
            -1.1997020471096802,
            0.12241078033579654,
            0.43236669052104193,
            -0.08906195752693148,
            -0.6900151359074671,
            0.7625033121117123,
            -0.003787756672034375,
            -0.58767592635257,
            1.4730921551731762,
            -0.1350590566198534,
            -0.8754458321070163,
            -0.8278912695626829,
            -0.39081021871745364,
            -0.43239516275545226,
            0.3151946519471038,
            0.20260010965754596,
            -0.24383024503014122,
            0.19571122837710833,
            0.1263221667384409,
            -1.0562455677259786,
            0.4887501324794309,
            2.6690244129235188,
            -1.770453466838575,
            -3.5817743082319,
            -0.1547468600858663,
            -2.667661588029791,
            2.3226668316177985,
            2.76481041821922
          ]
        },
        "biases": {
          "v": 1,
          "dim": [
            8
          ],
          "data": [
            1.8948880140245161,
            0.0,
            -0.11371023197611137,
            1.6723256721960602,
            0.0,
            0.0,
            1.7592814608309435,
            -2.404913910004973
          ]
        },
        "activation": "ReLU",
        "dropout": null
      },
      {
        "weights": {
          "v": 1,
          "dim": [
            3,
            8
          ],
          "data": [
            -0.6844166949918041,
            0.18807389504312333,
            -0.8482562240520489,
            -1.0012452025126353,
            0.11703463622393451,
            0.18087714423106807,
            2.4421993020473147,
            -1.6069368655448832,
            2.0105145776480127,
            0.5372691425692316,
            -0.6227778348075085,
            0.7660170686179603,
            -0.04490597833049234,
            0.26108189198079923,
            -3.4784760558730783,
            -1.5513107573911105,
            -2.2130805296585185,
            0.38004192720251395,
            -0.4446082009350211,
            -1.3230656428034686,
            0.4163957160467843,
            -0.28154036328167176,
            -4.030462799222769,
            2.1616097735359947
          ]
        },
        "biases": {
          "v": 1,
          "dim": [
            3
          ],
          "data": [
            -0.20915834148418322,
            0.8499906473645167,
            -1.7232177399543802
          ]
        },
        "activation": "Sigmoid",
        "dropout": null
      }
    ],
    "input_size": 4,
    "loss_function": "BinaryCrossEntropy",
    "optimizer": {
      "Adam": {
        "learning_rate": 0.01,
        "beta1": 0.9,
        "beta2": 0.999,
        "epsilon": 1e-8
      }
    },
    "optimizer_states_weights": [
      {
        "m": {
          "v": 1,
          "dim": [
            8,
            4
          ],
          "data": [
            -0.00826248776360146,
            -0.004375148164977502,
            -0.004215884081654201,
            -0.0009862120951762998,
            0.0,
            0.0,
            0.0,
            0.0,
            7.801122863492168e-182,
            5.671258534515083e-182,
            2.2158363862408832e-182,
            3.7978157284232235e-183,
            -0.003950148948124384,
            -0.0020547136408000646,
            -0.002032611429930926,
            -0.00048057887691763985,
            0.0,
            0.0,
            0.0,
            0.0,
            0.0,
            0.0,
            0.0,
            0.0,
            -0.0001646584224461472,
            -0.00016916975391274134,
            0.0008488399446966857,
            0.0003765451873632733,
            0.006584497962716299,
            0.003520410006322489,
            0.002942564032895976,
            0.000564261842560073
          ]
        },
        "v": {
          "v": 1,
          "dim": [
            8,
            4
          ],
          "data": [
            0.06011656155723449,
            0.012752253571846976,
            0.04412071547051795,
            0.004903060498041927,
            0.0,
            0.0,
            0.0,
            0.0,
            0.00003897114456859376,
            0.00002014292619313072,
            3.11640006569656e-6,
            1.0276725586534124e-7,
            0.016482341668105333,
            0.003499183588821767,
            0.01209229047578007,
            0.0013642568987464298,
            0.0,
            0.0,
            0.0,
            0.0,
            0.0,
            0.0,
            0.0,
            0.0,
            0.005329678090888785,
            0.0011074369922618136,
            0.003017566912832653,
            0.00031679853169678797,
            0.039080619486819845,
            0.008276136621994208,
            0.028747770609478585,
            0.0031479334810311506
          ]
        },
        "t": 3948
      },
      {
        "m": {
          "v": 1,
          "dim": [
            3,
            8
          ],
          "data": [
            0.00015791557882940735,
            0.0,
            -3.5293034696803803e-183,
            0.0002893354875818663,
            0.0,
            0.0,
            -0.00023422118623675354,
            0.00005957485081596827,
            -0.003039765624439406,
            0.0,
            9.620325204095328e-184,
            -0.0031232648623329877,
            0.0,
            0.0,
            0.0008690670965540167,
            0.001849605989103369,
            0.0017178949099934486,
            0.0,
            5.108452875021109e-184,
            0.0015604109191398377,
            0.0,
            0.0,
            3.9442595160545484e-8,
            -0.0011582894624244944
          ]
        },
        "v": {
          "v": 1,
          "dim": [
            3,
            8
          ],
          "data": [
            0.00019114827668567465,
            0.0,
            8.136884127055728e-8,
            0.0003021926216252225,
            0.0,
            0.0,
            0.00016824386022425193,
            0.0001544607319745669,
            0.0034752064005200314,
            0.0,
            4.589791367241212e-9,
            0.007938692823055841,
            0.0,
            0.0,
            0.0007006455307872804,
            0.02111205227416407,
            0.0011539335981684152,
            0.0,
            1.3322515017606685e-9,
            0.002715634180317823,
            0.0,
            0.0,
            0.00002657806231413834,
            0.006607395121585943
          ]
        },
        "t": 3948
      }
    ],
    "optimizer_states_biases": [
      {
        "m": {
          "v": 1,
          "dim": [
            8
          ],
          "data": [
            -0.0019459056175422339,
            0.0,
            1.5592539964830498e-182,
            -0.000928946248060332,
            0.0,
            0.0,
            -0.00011996415889236918,
            0.0016049726804358683
          ]
        },
        "v": {
          "v": 1,
          "dim": [
            8
          ],
          "data": [
            0.001556825094525299,
            0.0,
            1.5272718575313334e-6,
            0.0004260903284024868,
            0.0,
            0.0,
            0.00015732878152453525,
            0.0010166120278250546
          ]
        },
        "t": 3948
      },
      {
        "m": {
          "v": 1,
          "dim": [
            3
          ],
          "data": [
            0.00007093635533870854,
            -0.0006271194256520103,
            0.0002927794176658115
          ]
        },
        "v": {
          "v": 1,
          "dim": [
            3
          ],
          "data": [
            0.00002247986707708892,
            0.00042788998603349523,
            0.00015625648334962087
          ]
        },
        "t": 3948
      }
    ],
    "regularization": "None",
    "training_mode": false
  },
  "metadata": {
    "accuracy": 0.6888888888888889,
    "test_samples": 45,
    "trained_at": "2026-01-16 20:16:11"
  }
}