{
  "layers": [
    {
      "weights": {
        "v": 1,
        "dim": [
          8,
          4
        ],
        "data": [
          -0.3097196935041739,
          0.0818106452541455,
          0.707807556015321,
          -0.8705840067519842,
          -0.6233204399919438,
          0.6018608529142048,
          0.3014968511732241,
          -0.037406766895872134,
          -0.032119933218604665,
          -0.7086226684039425,
          1.443810996861948,
          -1.0505496894129405,
          -0.16354594982521853,
          -1.0374639880558045,
          2.160090737324572,
          2.556432861677602,
          -0.9180906187625342,
          -2.219973023965919,
          1.8951982043008075,
          4.656255255143729,
          0.018174719768971913,
          0.2034025419286167,
          -0.8793334884350416,
          -1.6755530548664328,
          -0.772298178234096,
          0.04368792306634567,
          -0.6657611426376625,
          -0.6053980353304099,
          0.9064790814496144,
          1.5656110584885607,
          -0.3631661200170118,
          -3.841045514251688
        ]
      },
      "biases": {
        "v": 1,
        "dim": [
          8
        ],
        "data": [
          0.5480568125275604,
          0.0,
          0.9797648824620439,
          0.3468464257094051,
          -3.561545161794907,
          -0.21965843083769102,
          0.0,
          2.5873548091938154
        ]
      },
      "activation": "ReLU",
      "dropout": null
    },
    {
      "weights": {
        "v": 1,
        "dim": [
          3,
          8
        ],
        "data": [
          0.28432279764278773,
          -0.676624315728883,
          -0.22475207701673347,
          -2.802453618493588,
          -1.287545498879192,
          0.007992733827089553,
          -0.276063329506803,
          1.285169595268941,
          0.2110703671344069,
          -0.4475694733893796,
          1.3350346509459345,
          0.8893367625906077,
          -6.44472668535361,
          0.4457691211880892,
          -0.10406486608373022,
          -0.8105832590751862,
          -0.3006349184763712,
          -0.25013895641479106,
          -0.6063478170128481,
          0.6999787977246924,
          4.415150695531576,
          -0.4397065560221771,
          -0.37342659333130634,
          -3.0427823057110146
        ]
      },
      "biases": {
        "v": 1,
        "dim": [
          3
        ],
        "data": [
          0.867880997110391,
          0.6065150133141225,
          -2.230551465503964
        ]
      },
      "activation": "Sigmoid",
      "dropout": null
    }
  ],
  "input_size": 4,
  "loss_function": "BinaryCrossEntropy",
  "optimizer": {
    "Adam": {
      "learning_rate": 0.01,
      "beta1": 0.9,
      "beta2": 0.999,
      "epsilon": 1e-8
    }
  },
  "optimizer_states_weights": [
    {
      "m": {
        "v": 1,
        "dim": [
          8,
          4
        ],
        "data": [
          0.02111434957698982,
          0.008946549474207182,
          0.017402973929420258,
          0.005726488593172245,
          0.0,
          0.0,
          0.0,
          0.0,
          0.08480162940732411,
          0.036020744635870454,
          0.06961710906636635,
          0.02288560609061651,
          0.015676006820978132,
          0.006676879884139138,
          0.012755001960450622,
          0.004177344497358793,
          -0.45955799754898424,
          -0.19336687089602206,
          -0.38112832223272675,
          -0.12576335875874275,
          2.5e-323,
          2.5e-323,
          2.5e-323,
          2.5e-323,
          0.0,
          0.0,
          0.0,
          0.0,
          0.07479114202049254,
          0.03146097632120375,
          0.062304483260744614,
          0.02059059016309844
        ]
      },
      "v": {
        "v": 1,
        "dim": [
          8,
          4
        ],
        "data": [
          0.0016955840478950538,
          0.0003452730080731456,
          0.0011735377081840224,
          0.00012576597541130176,
          0.0,
          0.0,
          0.0,
          0.0,
          0.029923145586293293,
          0.006054266698564546,
          0.02076459672182935,
          0.0022295277353808146,
          0.0012469864919003822,
          0.0002521843979359564,
          0.0008374968392283546,
          0.00009285462204162835,
          0.8663487346254175,
          0.17513728392828826,
          0.603354548577798,
          0.06462978932066026,
          4.123526986693429e-6,
          1.920979301934318e-6,
          3.4750397627622547e-7,
          9.721916400482937e-9,
          0.0,
          0.0,
          0.0,
          0.0,
          0.025879766172700297,
          0.005266879256142314,
          0.018187155388936678,
          0.0019291701882563036
        ]
      },
      "t": 8000
    },
    {
      "m": {
        "v": 1,
        "dim": [
          3,
          8
        ],
        "data": [
          4.6821441773918306e-7,
          0.0,
          2.1639712456832207e-6,
          6.205026057010149e-6,
          1.4181725981329694e-12,
          -2.5e-323,
          0.0,
          -4.555783068505028e-6,
          0.008086022294601116,
          0.0,
          0.03421384986251553,
          0.08920420278038131,
          0.01954999366764119,
          2.5e-323,
          0.0,
          0.03108355731784197,
          -0.006471962884024291,
          0.0,
          -0.027486170276339962,
          -0.07194626015795164,
          -0.015155080485961581,
          2.5e-323,
          0.0,
          -0.023490347206993816
        ]
      },
      "v": {
        "v": 1,
        "dim": [
          3,
          8
        ],
        "data": [
          4.043554547078275e-6,
          0.0,
          6.674049004327427e-7,
          7.962481679799819e-7,
          4.203156404714858e-7,
          2.2516579838856805e-7,
          0.0,
          1.6889080580132932e-6,
          0.0010428433937281622,
          0.0,
          0.005496091723752808,
          0.03842653516002435,
          0.0016446212586361615,
          4.762051811006289e-7,
          0.0,
          0.005375088326470678,
          0.0005865852552902201,
          0.0,
          0.003758464350148773,
          0.026079107734708232,
          0.0010533055765325223,
          1.675384633595521e-7,
          0.0,
          0.003428373014324844
        ]
      },
      "t": 8000
    }
  ],
  "optimizer_states_biases": [
    {
      "m": {
        "v": 1,
        "dim": [
          8
        ],
        "data": [
          0.003313822587162149,
          0.0,
          0.013344398950137589,
          0.002495912234689317,
          -0.0719751514807981,
          2.5e-323,
          0.0,
          0.011630233257545797
        ]
      },
      "v": {
        "v": 1,
        "dim": [
          8
        ],
        "data": [
          0.000045094402860309245,
          0.0,
          0.0007954456430528788,
          0.00003312269860059106,
          0.0230311300833351,
          1.644464435664048e-7,
          0.0,
          0.0006881394774560656
        ]
      },
      "t": 8000
    },
    {
      "m": {
        "v": 1,
        "dim": [
          3
        ],
        "data": [
          -8.355063436021862e-8,
          0.007336280717554225,
          -0.005753486217011965
        ]
      },
      "v": {
        "v": 1,
        "dim": [
          3
        ],
        "data": [
          5.395696575612208e-7,
          0.0002872302027862927,
          0.00018901219306979332
        ]
      },
      "t": 8000
    }
  ],
  "regularization": "None",
  "training_mode": true
}