{
  "network": {
    "layers": [
      {
        "weights": {
          "v": 1,
          "dim": [
            12,
            4
          ],
          "data": [
            0.15893332763597198,
            -0.16300739602674805,
            -0.38069998625725765,
            0.09024192120337061,
            0.5760093892118697,
            -1.056888710953432,
            0.5100793500119526,
            0.02408080651369901,
            -0.32768686521965945,
            0.25924061986844166,
            0.40640029128253097,
            0.4706705849978386,
            0.1794761930536903,
            -1.671103680666887,
            0.023003017672993033,
            0.25314995730270606,
            -0.5527461691265717,
            0.7341962657658494,
            0.03416975964660327,
            -0.5961490014675025,
            1.0407571303021377,
            -0.9276215173676896,
            0.23027631022256384,
            0.40156252468604636,
            0.13536758839657387,
            0.08915910632223237,
            0.152696421866607,
            -0.3635215895190137,
            -0.0685786929478978,
            -0.0713172603639081,
            0.9784549641474466,
            0.07182604228082473,
            -0.6843726865380964,
            0.26209969704783803,
            1.0670733168467548,
            0.8093812153541621,
            0.5597549340821056,
            0.1430208397096392,
            0.49697505547026577,
            0.5106157946901247,
            -0.07249642751970141,
            0.2591232986564758,
            0.7078461992123338,
            -0.30385035942780814,
            -0.0848204191362995,
            0.8435347506902907,
            -0.636686915682264,
            -0.25927065651880854
          ]
        },
        "biases": {
          "v": 1,
          "dim": [
            12
          ],
          "data": [
            0.3366394752467552,
            0.0482702464792898,
            -0.4401426924595163,
            -0.13088241702172995,
            -0.38075705060069515,
            -0.3175183372513176,
            0.44983447177048896,
            -0.7829201927732053,
            -0.6241217090340452,
            0.3945099566495401,
            -0.43827751977598617,
            0.2593088737200392
          ]
        },
        "activation": "Tanh",
        "dropout": null
      },
      {
        "weights": {
          "v": 1,
          "dim": [
            8,
            12
          ],
          "data": [
            0.21353813186882017,
            -0.15490217847844132,
            -0.5562013449719969,
            -0.5761506784763366,
            0.05527291380674362,
            -0.35640145508566573,
            0.23578260665300702,
            -0.7846959811080868,
            -1.5063647161293696,
            -0.24265422325856104,
            -0.17363282136969319,
            -0.1614404228947493,
            0.5527587128409163,
            -0.1257911125532531,
            -0.5161231081340446,
            1.053052900161968,
            -0.5305470620639876,
            0.37718925731161385,
            -0.245209414351805,
            -0.08407276622201884,
            0.2942599409285406,
            0.03631246691962328,
            0.4745908904775342,
            -0.6258734053754768,
            0.2576952317904311,
            0.4084807631687573,
            0.016260705391795235,
            0.5155883396807984,
            -0.45984762156371367,
            0.027557622816657554,
            -0.3891033164161002,
            0.4168394115146766,
            -0.09745238860268426,
            1.0072224779961665,
            -0.4631263104866945,
            -0.26949787115473794,
            -0.5347638707001953,
            0.2831038001923691,
            0.5317423241732996,
            0.6916022221132262,
            -0.1378343346421791,
            0.21134187656049924,
            -0.4672770010690671,
            1.348946788220942,
            1.4575246525960213,
            0.20066615405605112,
            0.5373064648781208,
            -0.27218428471139827,
            -0.1484987285839646,
            0.9102155316266239,
            -0.2444164185456793,
            -0.2278069296485323,
            -1.2892200508476337,
            0.1421822974745915,
            0.5893864404201326,
            0.023133697292299214,
            0.3631566768338809,
            0.5068287215060471,
            -0.2715310001394346,
            -0.8998051953360805,
            -0.18681717013545282,
            0.0642280737239335,
            -0.06958554456917831,
            0.15828178239371538,
            0.07006478976788769,
            0.6057229124582176,
            -0.5516553350508704,
            1.1745115723845083,
            1.7223096480593008,
            -0.05719923328729034,
            0.5642766495688812,
            -0.7684549555775185,
            -0.36821318394221364,
            0.36175590437746613,
            0.6530988113074961,
            0.43255889770182254,
            0.0451952098772129,
            0.79808377884359,
            0.2378087852644678,
            0.785110280642054,
            1.2218013734824145,
            -0.5397567042935079,
            0.39702381956798377,
            -0.8166089053998514,
            0.30119160805083184,
            -0.15616894189222316,
            0.20781913350844664,
            -0.7294854535503801,
            0.4040372419243877,
            -0.3298345558655146,
            -0.027243267369561824,
            -0.15806288791851592,
            -0.0572467125491445,
            -0.6748744976237822,
            0.17108899563031846,
            0.14867724658271822
          ]
        },
        "biases": {
          "v": 1,
          "dim": [
            8
          ],
          "data": [
            0.47865147638063565,
            0.016086679858825528,
            0.4574916830061733,
            -0.5463509099444978,
            0.39896789772126096,
            -0.4721492689451936,
            -0.5962757870117619,
            -0.18031003222334396
          ]
        },
        "activation": "Tanh",
        "dropout": null
      },
      {
        "weights": {
          "v": 1,
          "dim": [
            3,
            8
          ],
          "data": [
            0.43514874493991895,
            -1.6807761506781236,
            -1.6631967151768086,
            -0.5062213336299528,
            -0.6030414710288606,
            -0.6337623484785625,
            -0.6564168303544234,
            1.6722800947792535,
            0.9945039904846632,
            0.19705899026438992,
            0.8400296195181319,
            -1.1685128941368899,
            1.1644921681959686,
            -1.1046494185843672,
            -0.79468550953274,
            -0.8223494236899532,
            -1.7524797201532505,
            0.8050140032648502,
            0.32458904393511223,
            1.6589972802618334,
            0.2621495025388867,
            1.3785167891165346,
            1.5130134653949583,
            -1.2264481054297023
          ]
        },
        "biases": {
          "v": 1,
          "dim": [
            3
          ],
          "data": [
            0.23495123775058444,
            0.08794722303087522,
            -0.1354500898281609
          ]
        },
        "activation": "Softmax",
        "dropout": null
      }
    ],
    "input_size": 4,
    "loss_function": "CategoricalCrossEntropy",
    "optimizer": {
      "Adam": {
        "learning_rate": 0.01,
        "beta1": 0.9,
        "beta2": 0.999,
        "epsilon": 1e-8
      }
    },
    "optimizer_states_weights": [
      {
        "m": {
          "v": 1,
          "dim": [
            12,
            4
          ],
          "data": [
            0.0008410265807822989,
            -0.0003151663251242747,
            0.0013350001583416803,
            0.0009145425023147284,
            -0.0005984234957692948,
            0.00020310780219432058,
            -0.00040774765169985367,
            -0.00035318478608685575,
            -0.0009366282865579935,
            0.000557685200849719,
            -0.0017139851499531386,
            -0.0012302279052705477,
            -0.0005147683793214557,
            0.0010366727543800742,
            -0.0009932893796944652,
            -0.0009134110886320551,
            0.00016287675117740595,
            -5.402962609799971e-6,
            0.00016163515108982238,
            0.0001230132966626914,
            -0.0012741481221016774,
            0.0011154959310939834,
            -0.0009351981919965664,
            -0.0006200237901319006,
            0.0007025105679076015,
            -0.0004314679630073704,
            0.0010470601010695681,
            0.0007178944642360772,
            -0.0024712684376059107,
            0.0007941700281743989,
            -0.004438564131211496,
            -0.0031385947842437574,
            -0.0023773157261296595,
            0.001752237616458855,
            -0.006279345477696007,
            -0.004006354527288357,
            -0.000057984624623575396,
            0.00013518015144840806,
            -0.00012087335568085443,
            -0.00007069622078467115,
            -0.001147089064787242,
            0.0005596596052382087,
            -0.001750470545950408,
            -0.0011596964633984145,
            0.0011632887960286444,
            -0.0004350054571239167,
            0.0012846498026369254,
            0.0010736729498809978
          ]
        },
        "v": {
          "v": 1,
          "dim": [
            12,
            4
          ],
          "data": [
            0.00006097170470609569,
            0.00007253049706570126,
            0.00008826796248713177,
            0.00007501607581020946,
            8.924594167272974e-6,
            6.7730253565588896e-6,
            0.00001609375381571764,
            0.000021083514067080605,
            0.0001392055253459399,
            0.00013218943306477987,
            0.00018657790002293782,
            0.00015787177513973427,
            0.000290833847305799,
            0.00006854693608315912,
            0.0004284737705540541,
            0.00046411314819350065,
            0.00001252839591078816,
            0.00002553261126082769,
            0.000035441470091561694,
            0.00002727449427006767,
            0.00006588860988063406,
            0.00010565624172729465,
            0.00017935609155714894,
            0.0001862031092776836,
            0.0002045282858514337,
            0.000223820357029447,
            0.0003536867612206409,
            0.0003335439948536938,
            0.0009307807978973322,
            0.001327167937050522,
            0.0013583964856519496,
            0.0010538070409747637,
            0.002284356648462725,
            0.0030649728049037934,
            0.0030171391730944956,
            0.0019877526670110464,
            0.000013681567204497397,
            0.0000666703937002954,
            0.00005477126197444262,
            0.0000441820678098639,
            0.00013624860084807583,
            0.00010871644328891378,
            0.00019093846232450914,
            0.00018406036991276356,
            0.00007834655052747552,
            0.00006903073088177338,
            0.00013187821927347108,
            0.00013873081452742334
          ]
        },
        "t": 528
      },
      {
        "m": {
          "v": 1,
          "dim": [
            8,
            12
          ],
          "data": [
            0.0001328309757667971,
            0.0013491479907481153,
            -0.000028197127101711383,
            0.001430519773379557,
            -0.0009969923333148672,
            0.0014933576262533682,
            0.0003397026332377952,
            0.00039798434850576547,
            0.0005551656813942184,
            0.0007729460554743229,
            0.000014722548943150637,
            -0.0010234054790384116,
            -0.000034318722212614236,
            -0.00020546797800406004,
            -0.00003242758828116644,
            -3.7073330746852026e-6,
            0.00024285235844380027,
            -0.0002596437728308162,
            -0.0000816926701608326,
            -0.000040107428042309016,
            -0.00008558116502813941,
            -0.0002486597347983404,
            -8.34209289719552e-6,
            0.0000935826469623242,
            -2.206671143527552e-6,
            -0.00007585253667661118,
            -0.00006271241211756607,
            0.000010688036317090323,
            0.0001496115427450512,
            -0.00002690484306688981,
            -0.00002103400437614018,
            -5.444914145238536e-6,
            -0.00011850391079429854,
            -0.00019564913889837853,
            -1.7491146222522572e-6,
            0.00006410443025117991,
            -0.00018685200313047447,
            -0.0014943489846078746,
            -0.00004899663761133827,
            -0.001355584585542024,
            0.001225300964195386,
            -0.0016888300501254941,
            -0.0004227465254529211,
            -0.0003777089512207571,
            -0.0007279831337755274,
            -0.0010314337505988949,
            0.000028434631018158003,
            0.0010704564785914653,
            -2.3711478761067173e-6,
            -0.000020556463279966376,
            -0.000016568447550324483,
            3.943384002841506e-6,
            0.00004242506177863701,
            -5.81582833741379e-6,
            -8.474125551090958e-6,
            2.5408974566905163e-7,
            -0.000033636081257381786,
            -0.000054054903471883496,
            1.5576567604674582e-6,
            0.000016498130087609393,
            -0.0001480830211103369,
            -0.0012803132927616376,
            -0.000016979987222594676,
            -0.0012789516579495733,
            0.0010039008086148906,
            -0.0014063796510943682,
            -0.00033976978032399934,
            -0.0003195970463724587,
            -0.0005936617735827388,
            -0.0008183439481671633,
            0.000024101621507362785,
            0.0009412818710151766,
            -0.0000237309220008645,
            -0.0007145588368890196,
            -0.00034824188230966923,
            -0.0003927085654340564,
            0.0007273560260660895,
            -0.0008763962684382905,
            -0.00023856169879116378,
            -0.00029411346867133615,
            -0.0009290235362825408,
            -0.0007341489764514981,
            -0.00009186706985479983,
            0.0004569403260074999,
            0.000016526961184874285,
            0.00015094107944457218,
            0.00004560093940436585,
            -3.4052721488582083e-6,
            -0.00021510158166699732,
            0.0001430461773527046,
            0.00005953583486793592,
            0.00002272271469145423,
            0.00009671203711679887,
            0.00024587154770274746,
            0.000013685459711813965,
            -0.00007812991798298155
          ]
        },
        "v": {
          "v": 1,
          "dim": [
            8,
            12
          ],
          "data": [
            0.00003318456456249052,
            0.0002553695055189373,
            0.00009038113049873312,
            0.00016840812168059812,
            0.0002723754411999846,
            0.000165457593086435,
            0.00006148831818419945,
            0.00006586397926898746,
            0.00009035210866667561,
            0.0003272204553860547,
            0.000058019653649247055,
            0.0002065770232631835,
            0.000021363963636923087,
            0.00011375585941454704,
            0.00006544935208938235,
            0.000020946007540553975,
            0.00002733190883997019,
            0.000042925500493261174,
            0.00005866705810933296,
            0.00009790435751860062,
            0.00008483815647384698,
            0.0000940265834361002,
            0.00004391634163090023,
            0.00012419933857473937,
            2.2337824762490904e-6,
            0.000030214061074709613,
            0.000060116160165431683,
            0.00003262424986055391,
            0.000020009724627705886,
            5.55929797991751e-6,
            0.000016928484512811075,
            0.000035906402812809283,
            0.000026300518071396616,
            0.000013430334496863217,
            0.00004294863803876553,
            0.00003519480936336371,
            0.000023858905784358736,
            0.00019070138768712097,
            0.00006140037843666257,
            0.0001424812194537355,
            0.00023483588669030202,
            0.0001298981342241368,
            0.00003905961893838371,
            0.00002369754405716764,
            0.00004886348814476897,
            0.0002587031898193713,
            0.000040028124986435884,
            0.00013541303611937713,
            9.224791559540308e-7,
            2.858867579743264e-6,
            0.00001681840383537314,
            0.000012619741458612973,
            6.19420113773087e-6,
            1.317222037075845e-6,
            1.6109646194897153e-6,
            4.499340899840547e-6,
            4.694629733805706e-6,
            2.6968706579714987e-6,
            0.00001321015139877895,
            5.1716396239242595e-6,
            0.0000175425381104095,
            0.00016190646358709898,
            0.00005585329688624455,
            0.0001243174422222499,
            0.00020354688620641815,
            0.00010609383872944775,
            0.00003263202404183905,
            0.000022598795780190414,
            0.00004569292243813657,
            0.00021617989157789478,
            0.00003622249394700762,
            0.00011776989376573737,
            9.177524005403208e-6,
            0.00007964255088565828,
            0.0000261825498710835,
            0.00005638346941060024,
            0.00010144079875697966,
            0.00005138230693399187,
            0.00001759914708167556,
            0.000011656337330319385,
            0.000025570915288836792,
            0.00011174362035893241,
            0.00001693265225985033,
            0.000055845532518988315,
            0.00004344081988776768,
            0.00024475719023546086,
            0.00015270461720705503,
            0.00005091370034294927,
            0.000060707417098443525,
            0.00008635317145166343,
            0.00012737859641011567,
            0.00021534057376568872,
            0.00018713961133143988,
            0.00018968630886499966,
            0.00010344406387691887,
            0.0002694169888476566
          ]
        },
        "t": 528
      },
      {
        "m": {
          "v": 1,
          "dim": [
            3,
            8
          ],
          "data": [
            -0.00035199760965689674,
            0.0004171365082319156,
            0.0005668033728608281,
            0.0003129239977471115,
            0.0006024067415310967,
            0.00031530059607651277,
            0.00029299651265872803,
            -0.0005155219237519639,
            -0.0006638270159190835,
            0.0003988984118798273,
            0.00004917812655732081,
            0.0009117074697002379,
            -0.000013951276621258373,
            0.0008443318061080178,
            0.000925722319403585,
            -0.00019354381843935536,
            0.001015824625575986,
            -0.0008160349201117442,
            -0.0006159814994181537,
            -0.0012246314674473546,
            -0.0005884554649098434,
            -0.0011596324021845357,
            -0.001218718832062318,
            0.0007090657421913234
          ]
        },
        "v": {
          "v": 1,
          "dim": [
            3,
            8
          ],
          "data": [
            0.000028445463314952172,
            0.000026152539429066177,
            9.997705395657754e-6,
            0.00003740337402130804,
            0.0001448183258862591,
            0.000015187291453904958,
            0.000010105045320660711,
            0.00002880882917622509,
            0.00007031629073923567,
            0.00012919289007597688,
            0.00013084697429520062,
            0.00005423016826143109,
            0.0001936351865673329,
            0.00008175125132182638,
            0.00004694913807191025,
            0.00014217971768711678,
            0.00008644080350319339,
            0.0001302822310436153,
            0.00013167596336638137,
            0.00008554528311582573,
            0.0003006329718792757,
            0.00010629248053447788,
            0.00005669501361548785,
            0.00014207773571002093
          ]
        },
        "t": 528
      }
    ],
    "optimizer_states_biases": [
      {
        "m": {
          "v": 1,
          "dim": [
            12
          ],
          "data": [
            0.001144383301452346,
            -0.00027909438380963324,
            -0.0015121635434186826,
            -0.000791426025585092,
            0.00016496894529125988,
            -0.0007674525942675578,
            0.0008817866744907321,
            -0.0038336719903148348,
            -0.005937124315736538,
            -0.00016339264789631976,
            -0.0015065949415191402,
            0.0010733597325930252
          ]
        },
        "v": {
          "v": 1,
          "dim": [
            12
          ],
          "data": [
            0.00015821979851847538,
            0.00002805052528659451,
            0.0004058696794157721,
            0.0002075116647934602,
            0.000028785464932598812,
            0.0003665163024436843,
            0.0003472411744543181,
            0.0029422722772277934,
            0.006262941840130162,
            0.000018233765139859464,
            0.0003054823951064617,
            0.00029554528511526243
          ]
        },
        "t": 528
      },
      {
        "m": {
          "v": 1,
          "dim": [
            8
          ],
          "data": [
            0.0008024214542104646,
            -0.00019448823521369941,
            -0.00011249122334944804,
            -0.0010713916832815274,
            -0.000038317948493079636,
            -0.0008608026656790557,
            -0.0007170418849113371,
            0.0001642120030730493
          ]
        },
        "v": {
          "v": 1,
          "dim": [
            8
          ],
          "data": [
            0.00048422770235018186,
            0.000012682444846168216,
            0.00003425379366748493,
            0.00042344047654782667,
            0.00004024545441682314,
            0.00035878090673320334,
            0.00018061516031321422,
            0.000024201978575421705
          ]
        },
        "t": 528
      },
      {
        "m": {
          "v": 1,
          "dim": [
            3
          ],
          "data": [
            -0.00023774942307021316,
            0.0008117074248289221,
            -0.0005739580017587091
          ]
        },
        "v": {
          "v": 1,
          "dim": [
            3
          ],
          "data": [
            0.00001078510483972904,
            0.0002574960645740786,
            0.00023067630989059845
          ]
        },
        "t": 528
      }
    ],
    "regularization": "None",
    "training_mode": false
  },
  "metadata": {
    "accuracy": 0.9555555555555556,
    "test_samples": 45,
    "trained_at": "2026-01-26 18:58:54",
    "normalization": {
      "means": [
        5.843333333333335,
        3.057333333333334,
        3.7580000000000027,
        1.199333333333334
      ],
      "stds": [
        0.8253012917851409,
        0.43441096773549437,
        1.7594040657753032,
        0.7596926279021594
      ]
    }
  }
}