{
  "network": {
    "layers": [
      {
        "weights": {
          "v": 1,
          "dim": [
            12,
            4
          ],
          "data": [
            -0.0405024753118858,
            -0.5128990113726783,
            -0.35422384714955185,
            -0.1004161031624074,
            -0.524600770444488,
            -0.36218356407285696,
            -0.051043829517084006,
            -0.43088370307667023,
            -0.4247514894074933,
            0.33889572157807796,
            -0.6747248124751428,
            -0.875640509085616,
            0.1943121576519353,
            0.6164527727374683,
            -0.5503117855002079,
            -0.38601617049093634,
            0.07303526174285209,
            -0.7523152550011192,
            0.8106657381014077,
            0.996795505406543,
            -0.47329999414245966,
            0.07648074177348524,
            0.39516776818005345,
            0.8192374393191099,
            0.7157856078650606,
            -0.44757303007844057,
            0.39836555582390826,
            0.4231356369963284,
            0.450057904934914,
            -0.19522278851256866,
            0.10105725769657117,
            -0.512732463552029,
            -0.06331359713698535,
            -0.41801848787420404,
            0.6498184019038262,
            -0.22794816283703453,
            0.24473118542506608,
            0.2973019446715175,
            -0.24159531604820672,
            -1.0097643086931767,
            -0.10570538420792457,
            0.5147934784943894,
            -0.3633929000231997,
            -0.518056282182448,
            -0.15282571658670693,
            -0.7929234819732519,
            0.27488034029463815,
            1.2250504972683471
          ]
        },
        "biases": {
          "v": 1,
          "dim": [
            12
          ],
          "data": [
            -0.20068100741130354,
            -0.10478659824552305,
            -0.22024592137253837,
            0.36531950113512035,
            -0.6582962341714684,
            -0.5795683120592923,
            0.20364097275331583,
            0.10009161239486143,
            -0.2990525006611139,
            0.445975078173036,
            0.12748410974299645,
            -0.17665737589725145
          ]
        },
        "activation": "Tanh",
        "dropout": null
      },
      {
        "weights": {
          "v": 1,
          "dim": [
            8,
            12
          ],
          "data": [
            0.3584935483323514,
            0.1947468716494446,
            0.10205858897287828,
            0.20850361870115605,
            0.031543580651331615,
            -0.30349109999601703,
            -0.0048329777180533395,
            -0.16918434718740707,
            -0.4243450781911528,
            0.5796503000442441,
            1.3125232195342953,
            -0.7288662796147636,
            -0.6055742998439737,
            0.09016008580187392,
            -0.0313808869227828,
            0.15538827839876354,
            0.03208773892321405,
            -0.08690578528728614,
            0.17313391563983402,
            -0.28833575995905036,
            -0.6043415779776437,
            0.9689502859907203,
            0.5940804396642982,
            -0.5274521073226469,
            -0.3146404062642924,
            -0.061745324982361696,
            -0.08502595267325255,
            0.1959080837255581,
            0.526072510430925,
            0.221476145497601,
            -0.2287511255562446,
            0.12254748859791063,
            1.3687137231270572,
            -0.47822311435493847,
            -0.9096533124261562,
            0.4258695139772254,
            -0.16190153813003594,
            0.1434982189226824,
            -0.12186820644353613,
            0.19429767632770123,
            -1.0317848205644826,
            0.15784594079535377,
            -0.09870952756382805,
            -0.2889414455247709,
            -0.1936608408213802,
            0.6858584466942786,
            0.7847427279004343,
            -0.40764420409344765,
            -0.37464780617065824,
            -0.44091721426798386,
            0.41263375402595476,
            0.5194892194807316,
            -0.11057355452917257,
            -1.1500424667888156,
            0.15849230718106244,
            -0.01670903713460759,
            0.39729556099013774,
            1.52920870280947,
            -0.019705436804804306,
            -1.2475795622220003,
            -0.2870272436284342,
            0.004348778918189234,
            0.303386983123257,
            0.40783067448978705,
            0.5921994939339492,
            -0.9285859635179512,
            0.07719377784966813,
            0.4623489014021207,
            -0.3847927530144278,
            1.8819762667444697,
            0.021134786369073483,
            -1.3371948799325504,
            -0.027037424482965054,
            -0.3629675562988677,
            0.12187148102393143,
            0.7800090448313158,
            0.5534161317823846,
            -1.493029350016709,
            0.3148188584475769,
            0.040025951731203,
            -0.2990802036974315,
            1.6742430872830363,
            0.018190006155738243,
            -1.7566673756960587,
            0.33556087196691964,
            0.24988311568048133,
            -0.4577562546059723,
            0.017337437197167207,
            0.8762545159730765,
            0.03564395355615343,
            -0.05643605690330099,
            0.06558046259729221,
            0.9189130011574359,
            -0.24477259681234614,
            -1.0815309174516883,
            0.28533868499051984
          ]
        },
        "biases": {
          "v": 1,
          "dim": [
            8
          ],
          "data": [
            -0.16834086810000512,
            0.0867315118762406,
            0.1955380930563131,
            -0.16403985442832142,
            0.028898492369246916,
            0.08935803380322993,
            0.2623606924166681,
            0.21670168067120188
          ]
        },
        "activation": "Tanh",
        "dropout": null
      },
      {
        "weights": {
          "v": 1,
          "dim": [
            3,
            8
          ],
          "data": [
            1.8176313390642713,
            1.414171178328624,
            -0.8807636066476459,
            1.6238398577703215,
            0.5599741777236076,
            -0.21605885750849937,
            0.6979207446730903,
            -1.3899345637212817,
            -0.3239120475437859,
            -0.04347026357360761,
            1.0177015018667253,
            -0.35083445751309933,
            1.1508484924861184,
            0.27282638915908264,
            1.6833138783724486,
            0.4944235305649629,
            -0.007030706876371322,
            -0.9631569047568623,
            0.35568375753735804,
            0.23971513352786675,
            -0.28516984079876606,
            -1.6235906729768692,
            -1.6266399245642646,
            0.5193829407787288
          ]
        },
        "biases": {
          "v": 1,
          "dim": [
            3
          ],
          "data": [
            0.25604211842428415,
            -0.02787604903130104,
            -0.2013355162479471
          ]
        },
        "activation": "Softmax",
        "dropout": null
      }
    ],
    "input_size": 4,
    "loss_function": "CategoricalCrossEntropy",
    "optimizer": {
      "Adam": {
        "learning_rate": 0.01,
        "beta1": 0.9,
        "beta2": 0.999,
        "epsilon": 1e-8
      }
    },
    "optimizer_states_weights": [
      {
        "m": {
          "v": 1,
          "dim": [
            12,
            4
          ],
          "data": [
            1.4324264725641868e-6,
            2.627303538552935e-7,
            2.0023633571336335e-6,
            6.866693069051155e-7,
            1.422329512438882e-7,
            4.503001195687953e-8,
            1.5459429147585873e-7,
            5.09930207000835e-8,
            -1.7878529339778327e-6,
            -1.1878775974781116e-6,
            -5.302062833957128e-7,
            -8.57897284772281e-8,
            -0.00010277763997041495,
            -0.000013068818935755508,
            0.00022412504730712042,
            0.00013131801194688232,
            0.00002006483220447822,
            0.00002115945887750768,
            -0.00001482540693780886,
            -7.989791137899115e-6,
            0.00024394901512656851,
            0.000045314919054961204,
            -0.0004463270873629665,
            -0.0002681701138125632,
            -1.792835458144878e-7,
            -1.1277334913043132e-7,
            -7.160685588617274e-8,
            -1.5572113610264182e-8,
            -2.45701843803834e-6,
            1.626421870511016e-6,
            -1.0413221079645424e-6,
            -8.367300517883113e-8,
            -0.00009621154907678224,
            -0.000028903212596355916,
            -0.00009675292737742037,
            -0.000042319269794814974,
            -0.00019155875993203574,
            0.0000148606530767554,
            0.0007485584192768185,
            0.00040813144924031774,
            -0.00012208473398204109,
            -0.00014140478317673516,
            0.00008492956240801895,
            0.00004807240166214185,
            0.000020308191070547875,
            -0.00008564040367879102,
            -0.0007820699380394985,
            -0.0003929663439185505
          ]
        },
        "v": {
          "v": 1,
          "dim": [
            12,
            4
          ],
          "data": [
            0.00010454108765830923,
            0.00006380873953256207,
            4.666312639112422e-6,
            6.422999475522397e-7,
            2.728343223451065e-8,
            7.639980883636994e-9,
            2.371181613357533e-8,
            3.112059271191937e-9,
            0.0005138811415231757,
            0.00025284672675955947,
            0.00003858950701017115,
            8.506981775399537e-7,
            0.010641921938659068,
            0.002281681765053584,
            0.0077349893761969254,
            0.0008610280399616143,
            4.117920515941344e-6,
            1.2582025457941064e-6,
            2.697870889172918e-6,
            3.477349115737504e-7,
            0.04545948798883233,
            0.009533960653219755,
            0.03303155915144106,
            0.0036306400177103597,
            0.00010271166138743027,
            0.000052319992694769185,
            7.1374213340851016e-6,
            1.3631054266145471e-7,
            0.00033726128121701695,
            0.0000549907844588402,
            0.000323780705194572,
            0.00003922770509211019,
            0.0007765726006522571,
            0.00026388504947214155,
            0.00040911507380278207,
            0.00004895268615610427,
            0.11326474598806885,
            0.024347636107144875,
            0.08247376549584887,
            0.00912421182281123,
            0.0031118873427157918,
            0.0016944581770026404,
            0.0011459082670116744,
            0.0001582866805057532,
            0.08386653390332131,
            0.01794729293820612,
            0.06091778170828345,
            0.006739629649790465
          ]
        },
        "t": 912
      },
      {
        "m": {
          "v": 1,
          "dim": [
            8,
            12
          ],
          "data": [
            -6.668095669176268e-6,
            -6.191161360104796e-6,
            -7.228028709727413e-6,
            -0.000025808264042305538,
            0.00011951858280112526,
            0.00002376462835711312,
            6.5170469805553345e-6,
            6.941934495211069e-6,
            0.00007401281377766066,
            -0.000027614769346897753,
            -0.00008793003955867229,
            0.000021559693267934482,
            9.227517462823308e-6,
            9.28787834216259e-6,
            9.218354074425924e-6,
            -0.000023177534075407412,
            -2.6825425861463015e-6,
            0.00003380141509054224,
            -9.268344967897662e-6,
            -8.454702520194413e-6,
            -6.070087320439604e-8,
            -0.00002902243345673864,
            3.298089999069469e-6,
            0.00002969914845395212,
            6.539791833131052e-6,
            6.409473058042172e-6,
            6.717049596045658e-6,
            4.6522092757158385e-6,
            -0.000039864612455448807,
            -4.3387274577389545e-6,
            -6.506117486466598e-6,
            -6.310634295213273e-6,
            -0.000022447972589383857,
            5.797465324174773e-6,
            0.00002924965343380965,
            -3.457054941679817e-6,
            -0.00001177120963701418,
            -0.000011561111655572761,
            -0.000012049601668662455,
            -7.510362362435789e-6,
            0.00006497609857010501,
            6.375143244850744e-6,
            0.000011714704824589551,
            0.000011532698384274911,
            0.000038941925233049524,
            -8.52611190603789e-6,
            -0.00004861829071651554,
            4.459558225085407e-6,
            -4.049968372393261e-6,
            -3.8081035387640486e-6,
            -3.7918945319758165e-6,
            -0.00010890879492653646,
            4.5494310512596945e-6,
            0.00012808289506040273,
            3.7958012562640956e-6,
            5.904684531681472e-6,
            0.000041560273582753,
            -0.00011401102305215042,
            -0.00001632470666941221,
            0.0001215522636893455,
            -0.000012909644148449383,
            -0.00001260820354369487,
            -0.00001258867133217732,
            -0.00013540364344567668,
            0.00001353721882211849,
            0.00016449488086963816,
            0.000012592857887051644,
            0.000014696159605730562,
            0.00005658425668417282,
            -0.0001447533478733391,
            -0.000027520522276596768,
            0.00015138451629812428,
            -0.00005936945453193933,
            -0.00005894015630013889,
            -0.000058912338936834756,
            -0.0002091452144982454,
            0.000060303775502915806,
            0.00025667392835216496,
            0.00005891763082549708,
            0.0000606450832232511,
            0.00011538940855880012,
            -0.00022493731676681206,
            -0.00007914016867497654,
            0.0002306523453060511,
            3.6545386220970374e-6,
            3.536855676326486e-6,
            3.777097835888991e-6,
            4.749159264674726e-6,
            -0.00003016943250898631,
            -4.5750476798484925e-6,
            -3.6119500109330958e-6,
            -3.5469151277512994e-6,
            -0.00001743907171763717,
            5.58744306566652e-6,
            0.000021965184572350754,
            -3.9009253876121635e-6
          ]
        },
        "v": {
          "v": 1,
          "dim": [
            8,
            12
          ],
          "data": [
            0.000057641028083261356,
            0.00006709600565744132,
            0.00006988997299901492,
            0.00006571989316039793,
            0.00006776851007741202,
            0.000041688444422154464,
            0.00006243267974149637,
            0.00004658958773861952,
            0.000049905058781098726,
            0.000015131972392048515,
            0.00006610674334980525,
            0.00008187134671609006,
            0.00006460713924559055,
            0.00008192917449838289,
            0.00009217297880229328,
            0.00007260152296286068,
            0.00008251818162015293,
            0.00005214371707356941,
            0.00006898112479223534,
            0.0000646415567698359,
            0.000031143360401651214,
            9.713866890229107e-6,
            0.00004583803401029437,
            0.00007753981962106986,
            0.000011772960049359418,
            0.000012783323923535643,
            0.000017959998869862025,
            0.00001272815562034932,
            0.00001301974130122283,
            6.740392866214106e-6,
            0.000013488459980064663,
            7.07582228415673e-6,
            9.80000528401276e-6,
            3.0971790222054107e-6,
            8.758864270019326e-6,
            0.000017326579389895974,
            0.000056756639056713136,
            0.000059266388865860795,
            0.00009232234963825983,
            0.00005933766725387344,
            0.000060171995408891825,
            0.000030290617010830533,
            0.00006563491179119024,
            0.000030271365758558656,
            0.00005736038299385228,
            0.000010121940924244135,
            0.00004601292331356004,
            0.000067720168773696,
            0.000059038656136128434,
            0.00005913719421779879,
            0.000060819562330737464,
            8.99087944889735e-6,
            0.000058826281055947134,
            7.02694344762424e-6,
            0.000059620138098313304,
            0.000052582368240697455,
            0.0000410116979715955,
            5.695078778235673e-6,
            0.0000524065412604713,
            7.5723387891491095e-6,
            0.0001221247261368595,
            0.00012340279740171057,
            0.00012330485251346048,
            0.000019345812567619414,
            0.00012300343263723485,
            0.000014552441112217475,
            0.00012338036963871227,
            0.00010787216621947391,
            0.0000843441668763962,
            0.000011119821727586696,
            0.00010651808518823941,
            0.000015587656943592172,
            0.00036703961140205593,
            0.00036827688482069773,
            0.00036727121652210636,
            0.00004751806643164956,
            0.00036597050886871346,
            0.00004045365620420666,
            0.00036787030028425873,
            0.0003358954208863343,
            0.00024789160391740103,
            0.000034585412016421586,
            0.00033229967235747274,
            0.000031694641527089154,
            3.26039995381319e-6,
            3.630262960589865e-6,
            3.90067976094781e-6,
            3.6060880851528996e-6,
            3.668913760251839e-6,
            1.745522229987005e-6,
            3.6845716712969525e-6,
            1.7263474369162417e-6,
            3.1972519095226483e-6,
            1.1813842181123549e-6,
            2.0287172418665053e-6,
            5.369773568005886e-6
          ]
        },
        "t": 912
      },
      {
        "m": {
          "v": 1,
          "dim": [
            3,
            8
          ],
          "data": [
            -0.00038372131510162926,
            -0.00026028663419721057,
            0.0004049030987526801,
            -0.0003988784698802452,
            -0.00021470534937852092,
            -0.00021398225305125596,
            -0.00021306859512602137,
            0.0004067838310589725,
            0.0001492791307523002,
            -0.00012258493390886812,
            -0.00017714652384056168,
            0.00016812509915074922,
            -0.0004383089621514955,
            -0.00046539348885458494,
            -0.0005486310844157331,
            -0.0001795379075232327,
            0.0002344421843493411,
            0.0003828715681060819,
            -0.00022775657491213097,
            0.00023075337072950817,
            0.0006530143115300162,
            0.0006793757419058413,
            0.0007616996795417543,
            -0.00022724592353575237
          ]
        },
        "v": {
          "v": 1,
          "dim": [
            3,
            8
          ],
          "data": [
            0.00016142380464232087,
            0.00016060758828304934,
            0.0001075550482831491,
            0.00004944532411574998,
            0.00014076483281970275,
            0.00015256563000008353,
            0.00008520797989667083,
            0.000037787511219347476,
            0.0003255745732008689,
            0.0002276674798604489,
            0.00023189292734568015,
            0.00025117312536116827,
            0.00020835060870723427,
            0.0001753588435023509,
            0.00011176571542904612,
            0.00013591521733531003,
            0.0002471993838209873,
            0.00014631592341378977,
            0.00019129508628465863,
            0.0001650779163313165,
            0.00022429435756000845,
            0.0002225625403284921,
            0.00013662094979031059,
            0.00013476732679720973
          ]
        },
        "t": 912
      }
    ],
    "optimizer_states_biases": [
      {
        "m": {
          "v": 1,
          "dim": [
            12
          ],
          "data": [
            1.8763906219092135e-7,
            2.2138483671971527e-8,
            -3.6871466938406953e-7,
            -0.00008181118262679126,
            5.420596969134315e-6,
            0.00017875849418137708,
            -3.597813480767053e-8,
            -1.202514370956468e-6,
            -0.000011462684084946743,
            -0.00022362734525183136,
            -0.000032424277223978657,
            0.00017020248583522277
          ]
        },
        "v": {
          "v": 1,
          "dim": [
            12
          ],
          "data": [
            4.869809469257596e-6,
            9.316274969236483e-10,
            0.00002083180650820202,
            0.00027815285604551495,
            1.367391736953962e-7,
            0.001180784785118208,
            4.207896662114039e-6,
            8.389246442926962e-6,
            0.00002559906990557391,
            0.0029683518602975642,
            0.0001324988885310169,
            0.0021937815305424495
          ]
        },
        "t": 912
      },
      {
        "m": {
          "v": 1,
          "dim": [
            8
          ],
          "data": [
            6.16012287994589e-6,
            -9.291616240976267e-6,
            -6.4008905325313895e-6,
            0.000011547563097040933,
            3.791697440124605e-6,
            0.000012587762418120936,
            0.00005891012002574593,
            -3.5292622382086346e-6
          ]
        },
        "v": {
          "v": 1,
          "dim": [
            8
          ],
          "data": [
            0.00006820482962531216,
            0.00008304322308015241,
            0.000013105600029196899,
            0.000060785145210389904,
            0.00005923551598361688,
            0.00012367436420457706,
            0.00036837744752040254,
            3.7253526312828507e-6
          ]
        },
        "t": 912
      },
      {
        "m": {
          "v": 1,
          "dim": [
            3
          ],
          "data": [
            -0.0002111649859764136,
            0.0004347686587629576,
            -0.0002236036727865483
          ]
        },
        "v": {
          "v": 1,
          "dim": [
            3
          ],
          "data": [
            0.00019118037307732497,
            0.00039460058209066923,
            0.0003704116448863158
          ]
        },
        "t": 912
      }
    ],
    "regularization": "None",
    "training_mode": false
  },
  "metadata": {
    "accuracy": 0.7111111111111111,
    "test_samples": 45,
    "trained_at": "2026-01-22 17:52:54"
  }
}