{
  "layers": [
    {
      "weights": {
        "v": 1,
        "dim": [
          8,
          4
        ],
        "data": [
          0.38379718728434553,
          -0.8839424435048163,
          -0.2891503330258727,
          -0.09946925018643428,
          0.8146657691198514,
          1.2908440506987366,
          -0.07922550316258112,
          -2.224643178458823,
          -0.23218656785383116,
          -0.829060526829931,
          -1.070883274391876,
          -0.7541624432456596,
          -1.003921234871437,
          -1.465619857684279,
          1.7952434122652339,
          3.3092462450634126,
          0.38872257542981203,
          1.7848591971435668,
          -0.34767169974722717,
          -0.3750752626048764,
          0.41651953372742195,
          -0.15250143828830234,
          0.8960210110876882,
          -0.11221591923156482,
          -0.41665709350566454,
          -0.378682448412616,
          2.1749165514656417,
          3.106361092466174,
          -0.1682717518984452,
          -0.2712286301594337,
          -0.07085411881593268,
          0.39400359308483873
        ]
      },
      "biases": {
        "v": 1,
        "dim": [
          8
        ],
        "data": [
          0.0,
          1.4630793860468962,
          0.0,
          -2.6452277829595476,
          -0.07546165573531098,
          1.229832753572943,
          -0.4129664247345734,
          0.0
        ]
      },
      "activation": "ReLU",
      "dropout": null
    },
    {
      "weights": {
        "v": 1,
        "dim": [
          3,
          8
        ],
        "data": [
          -0.5478243860354876,
          0.9932311691391653,
          0.8372371243378152,
          -1.4613504878145598,
          0.24688655413257357,
          0.0455395211686485,
          -2.319365054685019,
          0.15925725304352822,
          -0.8467913777975613,
          -0.5205241287058318,
          -0.6710391150872109,
          -6.713655693015619,
          -1.0686624290580093,
          1.1353947584124413,
          0.9295606984361017,
          0.024650363795920446,
          0.08865480897771957,
          -1.3645010787389258,
          -0.3298432195996759,
          5.570013370385239,
          -0.5277186905414629,
          -0.9500246609348045,
          0.852624596172355,
          0.5836926259598697
        ]
      },
      "biases": {
        "v": 1,
        "dim": [
          3
        ],
        "data": [
          0.31256637368677065,
          0.6626355042991471,
          -1.9779297747056568
        ]
      },
      "activation": "Sigmoid",
      "dropout": null
    }
  ],
  "input_size": 4,
  "loss_function": "BinaryCrossEntropy",
  "optimizer": {
    "Adam": {
      "learning_rate": 0.01,
      "beta1": 0.9,
      "beta2": 0.999,
      "epsilon": 1e-8
    }
  },
  "optimizer_states_weights": [
    {
      "m": {
        "v": 1,
        "dim": [
          8,
          4
        ],
        "data": [
          0.0,
          0.0,
          0.0,
          0.0,
          -0.0071077229316670884,
          -0.0033961768300458696,
          -0.005208572674200503,
          -0.0015474003954466234,
          0.0,
          0.0,
          0.0,
          0.0,
          0.058941438747081694,
          0.03235412173026207,
          0.04877718363560761,
          0.012472975444924704,
          -0.00001238086945666312,
          0.00011419389810035175,
          0.0010734297750457829,
          0.00018518654290167143,
          -0.00938452384262514,
          -0.004665952113956445,
          -0.008759974337093331,
          -0.002361900236623988,
          0.002620559987155379,
          0.001135539287093199,
          0.0013330109657404938,
          0.0005284727673847186,
          0.0,
          0.0,
          0.0,
          0.0
        ]
      },
      "v": {
        "v": 1,
        "dim": [
          8,
          4
        ],
        "data": [
          0.0,
          0.0,
          0.0,
          0.0,
          0.001901273727454046,
          0.0004454142142129379,
          0.0011452646259019871,
          0.0001514004484256216,
          0.0,
          0.0,
          0.0,
          0.0,
          0.7283760198106682,
          0.18516757489878297,
          0.4607079894095182,
          0.06664020548499379,
          0.006808770454705266,
          0.0017076814768585873,
          0.004249347668899637,
          0.000566467232816489,
          0.028398019316300496,
          0.007085873719737566,
          0.017877554783088646,
          0.0025182518816870758,
          0.0020249007798525034,
          0.0005436020203703599,
          0.0012432899219432419,
          0.00016798806609882,
          0.0,
          0.0,
          0.0,
          0.0
        ]
      },
      "t": 5000
    },
    {
      "m": {
        "v": 1,
        "dim": [
          3,
          8
        ],
        "data": [
          0.0,
          -0.0001036424225898651,
          0.0,
          2.146170269298036e-9,
          -0.00008764172853404851,
          -5.467347705864996e-6,
          0.00008327584251399924,
          0.0,
          0.0,
          -0.002993670540626328,
          0.0,
          0.0013336382737528935,
          -0.002704548020662989,
          -0.004533174715905668,
          -0.00778364823986486,
          0.0,
          0.0,
          0.007100507359519976,
          0.0,
          0.00038035551835853727,
          0.005853358144353999,
          0.008058209245650785,
          0.0116425480118831,
          0.0
        ]
      },
      "v": {
        "v": 1,
        "dim": [
          3,
          8
        ],
        "data": [
          0.0,
          0.0005922196740973971,
          0.0,
          0.00003778067938492869,
          0.001108744692893502,
          0.00033828579257415075,
          0.0001693295082854462,
          0.0,
          0.0,
          0.009474430933301274,
          0.0,
          0.0011248859589051646,
          0.010552136576893642,
          0.015043674857881568,
          0.034490078445216475,
          0.0,
          0.0,
          0.004033839242241622,
          0.0,
          0.0004350979214126254,
          0.004337561012992111,
          0.006697863595422613,
          0.01553024845633166,
          0.0
        ]
      },
      "t": 5000
    }
  ],
  "optimizer_states_biases": [
    {
      "m": {
        "v": 1,
        "dim": [
          8
        ],
        "data": [
          0.0,
          -0.0012947032354048405,
          0.0,
          0.012715710613813984,
          0.00014819379056888815,
          -0.0019702819502774747,
          0.0003596868550912683,
          0.0
        ]
      },
      "v": {
        "v": 1,
        "dim": [
          8
        ],
        "data": [
          0.0,
          0.000048850295616554735,
          0.0,
          0.018651273299392583,
          0.00017770150268532335,
          0.0007256334048514183,
          0.000055401648104353313,
          0.0
        ]
      },
      "t": 5000
    },
    {
      "m": {
        "v": 1,
        "dim": [
          3
        ],
        "data": [
          -8.298476177049577e-6,
          -0.0007244601866253575,
          0.0012487579381116032
        ]
      },
      "v": {
        "v": 1,
        "dim": [
          3
        ],
        "data": [
          0.00003123083161134896,
          0.00031339549180065256,
          0.00013250655053685987
        ]
      },
      "t": 5000
    }
  ],
  "regularization": "None",
  "training_mode": true
}