{
  "layers": [
    {
      "weights": {
        "v": 1,
        "dim": [
          8,
          2
        ],
        "data": [
          0.8034751424032562,
          -0.07171093058051999,
          -0.34901671616062935,
          0.6262381676009667,
          0.08179081716211835,
          -0.34492999672407154,
          -0.4877559157050515,
          -0.6545912721850758,
          0.4778854483249799,
          -0.14846708545569506,
          -0.06650324781389913,
          1.0962183985750713,
          -0.6829330017247305,
          -0.824329788628214,
          -0.0727063435277277,
          0.10943571024865183
        ]
      },
      "biases": {
        "v": 1,
        "dim": [
          8
        ],
        "data": [
          0.060537624308965775,
          0.11361262488153501,
          0.10798159665719399,
          -0.0026968672829513905,
          0.1045819459555183,
          -0.06830070776301567,
          -0.015768039127151304,
          -0.07676281567196476
        ]
      },
      "activation": "Tanh",
      "dropout": null
    },
    {
      "weights": {
        "v": 1,
        "dim": [
          1,
          8
        ],
        "data": [
          -0.2772114234336009,
          -0.3922987769490484,
          0.09890910404328038,
          -0.09837242245374142,
          -0.18798033234053818,
          0.37344701762578997,
          -0.22395595355616346,
          0.09293079045573002
        ]
      },
      "biases": {
        "v": 1,
        "dim": [
          1
        ],
        "data": [
          -0.06422291761226728
        ]
      },
      "activation": "Sigmoid",
      "dropout": null
    }
  ],
  "input_size": 2,
  "loss_function": "BinaryCrossEntropy",
  "optimizer": {
    "Adam": {
      "learning_rate": 0.01,
      "beta1": 0.9,
      "beta2": 0.999,
      "epsilon": 1e-8
    }
  },
  "optimizer_states_weights": [
    {
      "m": {
        "v": 1,
        "dim": [
          8,
          2
        ],
        "data": [
          0.0033123826875992653,
          0.012475568116737567,
          0.010979146335650409,
          -0.011121482005228443,
          -0.0021643221378821057,
          0.00010152900712251975,
          0.005904163929347088,
          0.001964574922970484,
          0.0008044925962624224,
          0.0002780818021169098,
          -0.03266369474561618,
          0.006500759459620964,
          0.01352685810411387,
          0.006236233140682982,
          -0.0024005483304226733,
          0.002678567863890888
        ]
      },
      "v": {
        "v": 1,
        "dim": [
          8,
          2
        ],
        "data": [
          2.5959095731786277e-6,
          7.359183992048613e-6,
          0.000012537647914910919,
          0.000010845492978048864,
          3.224684631907081e-7,
          2.4313450906534344e-7,
          1.2809267041115718e-6,
          2.9178186998121735e-7,
          4.897512462323233e-6,
          5.562006952667236e-6,
          0.00003857356601145044,
          8.312228567309285e-6,
          5.501712716699668e-6,
          1.3379032980712586e-6,
          4.480394633296232e-6,
          4.89633985514471e-6
        ]
      },
      "t": 25
    },
    {
      "m": {
        "v": 1,
        "dim": [
          1,
          8
        ],
        "data": [
          -0.015841705273967322,
          0.01868849656247853,
          -0.007126112512152432,
          0.021415075061677447,
          -0.011349506669859576,
          0.02400958664559965,
          0.039262474203926326,
          0.005953708292299331
        ]
      },
      "v": {
        "v": 1,
        "dim": [
          1,
          8
        ],
        "data": [
          0.00006891649453343147,
          0.000029235854336086133,
          0.000012531561956903399,
          0.00006540064622932459,
          0.000022199294209005362,
          0.00010582997105033674,
          0.0001056307070415875,
          3.927918808316891e-6
        ]
      },
      "t": 25
    }
  ],
  "optimizer_states_biases": [
    {
      "m": {
        "v": 1,
        "dim": [
          8
        ],
        "data": [
          0.0004085978883942014,
          -0.0044417571120255375,
          -0.0011086757099328366,
          0.0022404031725540706,
          -0.0012361384385843328,
          -0.0023092469964676055,
          0.0032701930694422625,
          -0.0010494275171188958
        ]
      },
      "v": {
        "v": 1,
        "dim": [
          8
        ],
        "data": [
          0.000010968344641796417,
          0.000019473882336105873,
          6.745327974873969e-7,
          1.4452114447053698e-6,
          0.000011095014155849911,
          0.00003092650184238869,
          4.550492362942893e-6,
          9.127734819202396e-6
        ]
      },
      "t": 25
    },
    {
      "m": {
        "v": 1,
        "dim": [
          1
        ],
        "data": [
          -0.013382557075508061
        ]
      },
      "v": {
        "v": 1,
        "dim": [
          1
        ],
        "data": [
          0.00025534174857531964
        ]
      },
      "t": 25
    }
  ],
  "regularization": "None",
  "training_mode": true
}