{
  "layers": [
    {
      "weights": {
        "v": 1,
        "dim": [
          5,
          2
        ],
        "data": [
          -2.971135133021123,
          5.983946646497764,
          -7.571517131290142,
          4.693564146381202,
          -5.5169772541399755,
          -5.8131179977300995,
          4.1708053930620315,
          4.2473994123270105,
          2.8635116125069664,
          -6.042879281128411
        ]
      },
      "biases": {
        "v": 1,
        "dim": [
          5
        ],
        "data": [
          0.24623120540836513,
          -1.06856432208812,
          1.3660686958622277,
          -0.49215841947582634,
          -0.11375381218403156
        ]
      },
      "activation": "Tanh",
      "dropout": null
    },
    {
      "weights": {
        "v": 1,
        "dim": [
          1,
          5
        ],
        "data": [
          -10.871094837216479,
          21.408502197469396,
          -8.57301758794013,
          8.178968784617684,
          10.858114680543949
        ]
      },
      "biases": {
        "v": 1,
        "dim": [
          1
        ],
        "data": [
          5.01377731476787
        ]
      },
      "activation": "Sigmoid",
      "dropout": null
    }
  ],
  "input_size": 2,
  "loss_function": "BinaryCrossEntropy",
  "optimizer": {
    "Adam": {
      "learning_rate": 0.01,
      "beta1": 0.9,
      "beta2": 0.999,
      "epsilon": 1e-8
    }
  },
  "optimizer_states_weights": [
    {
      "m": {
        "v": 1,
        "dim": [
          5,
          2
        ],
        "data": [
          4.582432772916007e-12,
          -1.0516050777665462e-11,
          5.257695913625196e-12,
          -2.000830712000123e-12,
          6.937814737710685e-13,
          5.621626271208555e-13,
          -1.7001606292581287e-12,
          -2.137240848570317e-12,
          -4.542038543923774e-12,
          9.808811541310264e-12
        ]
      },
      "v": {
        "v": 1,
        "dim": [
          5,
          2
        ],
        "data": [
          1.7426221887455053e-19,
          8.741206081811972e-20,
          1.6667263044753872e-20,
          7.460689165810974e-20,
          1.0310792276487376e-21,
          1.1781083156713428e-21,
          1.1706422524094789e-20,
          3.446024533082901e-20,
          1.2848237100802906e-19,
          6.885772250729988e-20
        ]
      },
      "t": 40000
    },
    {
      "m": {
        "v": 1,
        "dim": [
          1,
          5
        ],
        "data": [
          1.2557855869446018e-10,
          -2.025462136581483e-10,
          3.682540051267396e-11,
          -3.649273334515371e-11,
          -1.2559240082501996e-10
        ]
      },
      "v": {
        "v": 1,
        "dim": [
          1,
          5
        ],
        "data": [
          6.345445520449429e-19,
          9.182803987712018e-19,
          8.69668452002561e-19,
          9.446771363235976e-19,
          6.08737157765036e-19
        ]
      },
      "t": 40000
    }
  ],
  "optimizer_states_biases": [
    {
      "m": {
        "v": 1,
        "dim": [
          5
        ],
        "data": [
          4.4949505247057283e-13,
          1.27837329885033e-12,
          4.578732230153302e-13,
          -1.2098698092069112e-12,
          -2.1710100903660218e-13
        ]
      },
      "v": {
        "v": 1,
        "dim": [
          5
        ],
        "data": [
          2.3987262546444783e-19,
          1.1737356698307416e-19,
          8.957366491656671e-21,
          1.0783256497783386e-19,
          1.7635611009320415e-19
        ]
      },
      "t": 40000
    },
    {
      "m": {
        "v": 1,
        "dim": [
          1
        ],
        "data": [
          -3.613684376345581e-11
        ]
      },
      "v": {
        "v": 1,
        "dim": [
          1
        ],
        "data": [
          1.30124251904042e-18
        ]
      },
      "t": 40000
    }
  ],
  "regularization": "None",
  "training_mode": true
}