{
  "layers": [
    {
      "weights": {
        "v": 1,
        "dim": [
          5,
          2
        ],
        "data": [
          5.394977758234817,
          -4.714776047848326,
          4.068860715429871,
          4.060441594846656,
          -4.139399359681482,
          4.65916416741241,
          3.650251747682206,
          3.5575072639913436,
          4.609174404549049,
          4.752216601704634
        ]
      },
      "biases": {
        "v": 1,
        "dim": [
          5
        ],
        "data": [
          2.4228649191894127,
          -1.8923777326806055,
          2.200512149657319,
          -5.362026712716658,
          -2.226136249972704
        ]
      },
      "activation": "Tanh"
    },
    {
      "weights": {
        "v": 1,
        "dim": [
          1,
          5
        ],
        "data": [
          -10.846458970603745,
          6.591595962587874,
          -11.110096959214204,
          -12.760563602397466,
          6.406362559926226
        ]
      },
      "biases": {
        "v": 1,
        "dim": [
          1
        ],
        "data": [
          -1.4915352344568065
        ]
      },
      "activation": "Sigmoid"
    }
  ],
  "input_size": 2,
  "loss_function": "BinaryCrossEntropy",
  "optimizer": {
    "Adam": {
      "learning_rate": 0.01,
      "beta1": 0.9,
      "beta2": 0.999,
      "epsilon": 1e-8
    }
  },
  "optimizer_states_weights": [
    {
      "m": {
        "v": 1,
        "dim": [
          5,
          2
        ],
        "data": [
          -4.512031570839251e-12,
          7.588949786786616e-12,
          -8.900919757301748e-12,
          -9.363247242231413e-12,
          1.3882772414586963e-11,
          -9.891054742925794e-12,
          -2.0714653976181664e-11,
          -2.62266914410624e-11,
          -5.7750606319276604e-12,
          -4.5076810029566e-12
        ]
      },
      "v": {
        "v": 1,
        "dim": [
          5,
          2
        ],
        "data": [
          1.2948192360593867e-20,
          7.937783194728933e-20,
          5.466814621762373e-20,
          8.26334256655879e-20,
          2.409495073533677e-19,
          8.171163949749465e-20,
          1.4898383286288823e-19,
          1.4762738644809e-19,
          1.2275246896831366e-20,
          8.711020251450798e-21
        ]
      },
      "t": 40000
    },
    {
      "m": {
        "v": 1,
        "dim": [
          1,
          5
        ],
        "data": [
          7.795746345768133e-11,
          -2.6861625674665196e-11,
          7.509049433375756e-11,
          7.444484379359919e-11,
          -2.802194482096783e-11
        ]
      },
      "v": {
        "v": 1,
        "dim": [
          1,
          5
        ],
        "data": [
          3.6493258081413543e-19,
          2.7444643391560615e-19,
          2.9009639387396895e-19,
          4.7997813985697575e-20,
          2.0065267504359119e-19
        ]
      },
      "t": 40000
    }
  ],
  "optimizer_states_biases": [
    {
      "m": {
        "v": 1,
        "dim": [
          5
        ],
        "data": [
          -1.2853526819329613e-12,
          -3.137240267370742e-12,
          -1.7414615400518169e-13,
          1.57652058074762e-11,
          -2.5734690993915184e-12
        ]
      },
      "v": {
        "v": 1,
        "dim": [
          5
        ],
        "data": [
          1.6661970684377886e-19,
          2.565524312423529e-19,
          4.2196998076591773e-19,
          2.339577343067397e-19,
          3.190925881955389e-20
        ]
      },
      "t": 40000
    },
    {
      "m": {
        "v": 1,
        "dim": [
          1
        ],
        "data": [
          2.3419795289842642e-11
        ]
      },
      "v": {
        "v": 1,
        "dim": [
          1
        ],
        "data": [
          6.30564649402714e-19
        ]
      },
      "t": 40000
    }
  ]
}