{
  "layers": [
    {
      "weights": {
        "v": 1,
        "dim": [
          10,
          2
        ],
        "data": [
          3.5898306855329563,
          -2.837229659012727,
          1.2385219682941238,
          -0.4778204008428776,
          -4.105141218604182,
          -3.902264665383942,
          1.9111179201368145,
          2.192625428694844,
          0.13257583367604264,
          -0.8945056073837274,
          0.32543141477403154,
          -0.16727556516441242,
          -0.8119629041868152,
          -1.390492211372795,
          3.6313204420111487,
          -3.295665574271254,
          0.5391225279476005,
          -0.2664417673940631,
          -2.944132005304683,
          3.3913057245059988
        ]
      },
      "biases": {
        "v": 1,
        "dim": [
          10
        ],
        "data": [
          1.5129062669065416,
          0.19631696268162085,
          1.8198243581188613,
          -3.2628913285598555,
          0.5279833971473529,
          0.5613953335680623,
          1.8790120718045324,
          1.7888463748143704,
          0.023843978235010842,
          1.4366533249968725
        ]
      },
      "activation": "Tanh",
      "dropout": null
    },
    {
      "weights": {
        "v": 1,
        "dim": [
          1,
          10
        ],
        "data": [
          -3.6709819503879206,
          -0.2859877224076889,
          -4.082276906036464,
          -2.9512558849427046,
          0.8272736620688387,
          0.3967549994820236,
          1.9300987423446023,
          -2.5318293243467807,
          0.6260177210024738,
          -4.788712756937418
        ]
      },
      "biases": {
        "v": 1,
        "dim": [
          1
        ],
        "data": [
          0.7542947060719712
        ]
      },
      "activation": "Sigmoid",
      "dropout": null
    }
  ],
  "input_size": 2,
  "loss_function": "BinaryCrossEntropy",
  "optimizer": {
    "Adam": {
      "learning_rate": 0.0125,
      "beta1": 0.9,
      "beta2": 0.999,
      "epsilon": 1e-8
    }
  },
  "optimizer_states_weights": [
    {
      "m": {
        "v": 1,
        "dim": [
          10,
          2
        ],
        "data": [
          -8.79925889384421e-6,
          0.000043736031491434165,
          -1.5400855848595096e-6,
          8.020492854452992e-6,
          0.000016496736724351025,
          0.00001426545473088233,
          -0.000020221891086258595,
          -0.000024906789627248108,
          -9.96670526086132e-6,
          2.7101466156470153e-6,
          -5.539018309686559e-6,
          -5.70601440874538e-6,
          0.00002685331939022374,
          0.00001057858516253942,
          -8.020267510519537e-6,
          0.000018193198292132602,
          -0.000013284324130112807,
          -1.4508608584165499e-6,
          0.000060901262154188343,
          -0.000024110205143649373
        ]
      },
      "v": {
        "v": 1,
        "dim": [
          10,
          2
        ],
        "data": [
          0.000014479295712783123,
          0.00003452158573450776,
          6.017496410851922e-6,
          0.000014704962347224789,
          7.370988841475049e-6,
          8.235856922273386e-6,
          1.6658226132084705e-6,
          3.6410813885323018e-6,
          2.6527111536872768e-6,
          2.6474200148654934e-6,
          3.238588558567303e-7,
          7.390384751474463e-7,
          4.508456877836994e-6,
          6.447121405692975e-6,
          1.1690517224892013e-6,
          1.660305705184897e-6,
          1.5016995490046757e-6,
          4.128601428412089e-6,
          0.00003691904740137676,
          0.00003227050081116608
        ]
      },
      "t": 1000
    },
    {
      "m": {
        "v": 1,
        "dim": [
          1,
          10
        ],
        "data": [
          0.00010092297827025767,
          -0.0000104285258123519,
          0.0001951622206499256,
          0.00006864516188170843,
          -1.8264691646932517e-7,
          -4.328608309465629e-6,
          -0.0000235873937129208,
          0.00010672524397707555,
          -0.000018010990281230117,
          0.0001796213378398519
        ]
      },
      "v": {
        "v": 1,
        "dim": [
          1,
          10
        ],
        "data": [
          0.00008518657018016902,
          0.000018854923533023242,
          0.00018937614079549,
          8.666569525586313e-6,
          6.502034763737978e-6,
          0.000011794169379093183,
          9.016071979007823e-6,
          0.00004109977767023704,
          3.450298049835055e-6,
          0.00006465765931316155
        ]
      },
      "t": 1000
    }
  ],
  "optimizer_states_biases": [
    {
      "m": {
        "v": 1,
        "dim": [
          10
        ],
        "data": [
          -0.000023534025059767204,
          -0.00001478638622855936,
          -0.000011525620683162721,
          0.00004248314599703654,
          0.000013631238192862668,
          5.1672228213119825e-6,
          -0.00004429974221856828,
          -9.614789282709208e-6,
          0.0000173274815092702,
          -0.00003978322021440095
        ]
      },
      "v": {
        "v": 1,
        "dim": [
          10
        ],
        "data": [
          0.000029604702027877162,
          0.00001826217426859057,
          0.000010183215531129687,
          3.821719423626604e-6,
          4.134008060955376e-6,
          6.411300706125729e-7,
          8.140275256588976e-6,
          1.9915303455398084e-6,
          3.976582045916128e-6,
          0.000041281928878089754
        ]
      },
      "t": 1000
    },
    {
      "m": {
        "v": 1,
        "dim": [
          1
        ],
        "data": [
          3.352200430156104e-6
        ]
      },
      "v": {
        "v": 1,
        "dim": [
          1
        ],
        "data": [
          0.00013622247551974966
        ]
      },
      "t": 1000
    }
  ],
  "regularization": "None",
  "training_mode": true
}