{
  "layers": [
    {
      "weights": {
        "v": 1,
        "dim": [
          10,
          2
        ],
        "data": [
          3.592102103198582,
          4.21842664858707,
          -1.7445950875513918,
          -1.4762985652590916,
          -1.4940412083070735,
          2.6155315320535553,
          3.498535751967991,
          -2.697017994554815,
          1.537904327476832,
          -2.5878407064003395,
          -1.4423039011297227,
          2.551862452671817,
          -4.244585986459123,
          3.231322875607203,
          -2.3601674107246917,
          -2.509892848790305,
          -0.7045638764729084,
          1.7148935544267572,
          -2.5097190524212127,
          -2.9195989738400003
        ]
      },
      "biases": {
        "v": 1,
        "dim": [
          10
        ],
        "data": [
          -1.5040894079820037,
          2.546772230946215,
          0.4785551888862094,
          1.1145848392943956,
          -0.5294679587815383,
          0.4584120562323389,
          -1.3790236350022322,
          0.6987842124936985,
          0.13825009870182972,
          0.8434337246837383
        ]
      },
      "activation": "Tanh",
      "dropout": null
    },
    {
      "weights": {
        "v": 1,
        "dim": [
          1,
          10
        ],
        "data": [
          3.0894609868946206,
          4.19418726894766,
          -1.9300014582923346,
          -2.3489382640024306,
          1.7666297139547817,
          -1.9560658980793153,
          4.0943363022282675,
          -2.1974543171170153,
          -2.354270323616578,
          -1.7185173998320462
        ]
      },
      "biases": {
        "v": 1,
        "dim": [
          1
        ],
        "data": [
          0.17104009680633947
        ]
      },
      "activation": "Sigmoid",
      "dropout": null
    }
  ],
  "input_size": 2,
  "loss_function": "BinaryCrossEntropy",
  "optimizer": {
    "Adam": {
      "learning_rate": 0.003125,
      "beta1": 0.9,
      "beta2": 0.999,
      "epsilon": 1e-8
    }
  },
  "optimizer_states_weights": [
    {
      "m": {
        "v": 1,
        "dim": [
          10,
          2
        ],
        "data": [
          -7.838711563582331e-6,
          -2.9610245774987455e-6,
          0.000013919190204126527,
          0.00002650825845561775,
          0.000021705755883850032,
          -0.000011136162446170042,
          -8.029388573343963e-6,
          0.000012060317357359365,
          -0.000019778412693882146,
          0.000010655021312179828,
          0.00002294379669253893,
          -0.000011865502207721256,
          5.556335630951775e-6,
          -0.00001559084174455804,
          0.000012485459975815217,
          0.000012191906896167747,
          0.00004159857948324089,
          -0.00002016573089615788,
          9.714013931352158e-6,
          5.744988064049166e-6
        ]
      },
      "v": {
        "v": 1,
        "dim": [
          10,
          2
        ],
        "data": [
          9.004705495803311e-6,
          1.7103733104975085e-6,
          8.355427100672754e-6,
          8.13324954337036e-6,
          3.7253876687654024e-6,
          2.56163922591811e-6,
          7.089959218400579e-8,
          8.315435373325525e-8,
          3.954025401509721e-6,
          2.767411872699647e-6,
          5.1306351479097966e-6,
          3.506899721534645e-6,
          6.0507880193816235e-6,
          0.000021245585574094098,
          8.445995027027315e-6,
          9.539753154119254e-6,
          0.00010892782364025644,
          0.00007939510863513948,
          1.8011914896205219e-6,
          8.253239077832622e-7
        ]
      },
      "t": 1000
    },
    {
      "m": {
        "v": 1,
        "dim": [
          1,
          10
        ],
        "data": [
          -0.00007342875495275049,
          -0.00007555071187638594,
          0.00002518672766652029,
          0.00006441110009719718,
          -0.00002575349230822783,
          0.000024118442379373478,
          -0.00006886759861926397,
          0.0000630910392946177,
          6.012934850777934e-6,
          0.0000660182091545172
        ]
      },
      "v": {
        "v": 1,
        "dim": [
          1,
          10
        ],
        "data": [
          0.00016178911719158222,
          5.780316230337654e-6,
          7.935931158582646e-6,
          2.3138202173155995e-6,
          0.000011590337315960512,
          8.781557326099202e-6,
          0.00014221220369889666,
          0.00006377835160003068,
          0.000013722405553639679,
          0.00005154365287838396
        ]
      },
      "t": 1000
    }
  ],
  "optimizer_states_biases": [
    {
      "m": {
        "v": 1,
        "dim": [
          10
        ],
        "data": [
          7.348690400901098e-7,
          -0.00007095004359041265,
          -9.640599812445998e-6,
          -5.075571176205003e-6,
          7.586052045191776e-6,
          -9.245104933801869e-6,
          3.5208104879582783e-6,
          -4.314275698194778e-6,
          5.661183821346584e-6,
          -3.37065992334545e-6
        ]
      },
      "v": {
        "v": 1,
        "dim": [
          10
        ],
        "data": [
          9.212142029775173e-6,
          0.000016424238440630678,
          5.765703486720841e-6,
          1.1918126921949154e-7,
          6.1865524256738205e-6,
          7.993775886331128e-6,
          0.000019950270390150852,
          0.00001750315904471369,
          0.0001883748540542333,
          3.073516528541491e-6
        ]
      },
      "t": 1000
    },
    {
      "m": {
        "v": 1,
        "dim": [
          1
        ],
        "data": [
          -0.000035521273215121426
        ]
      },
      "v": {
        "v": 1,
        "dim": [
          1
        ],
        "data": [
          0.00013273074138952988
        ]
      },
      "t": 1000
    }
  ],
  "regularization": "None",
  "training_mode": false
}