{
  "layers": [
    {
      "weights": {
        "v": 1,
        "dim": [
          5,
          2
        ],
        "data": [
          -4.776691107648033,
          4.193174588331043,
          -5.0320228850025694,
          -5.251695248570034,
          -3.671356576939483,
          4.2063326096544955,
          3.4324514763346325,
          3.340377623791455,
          5.053194779059355,
          5.005826413329601
        ]
      },
      "biases": {
        "v": 1,
        "dim": [
          5
        ],
        "data": [
          -2.095520992554164,
          2.3264212700908184,
          1.8904449701435475,
          -5.073420209400895,
          -2.2603683534421464
        ]
      },
      "activation": "Tanh",
      "dropout": null
    },
    {
      "weights": {
        "v": 1,
        "dim": [
          1,
          5
        ],
        "data": [
          11.306962644305658,
          -6.046360652678399,
          -11.608583035747403,
          -12.350348759836379,
          6.52834697389946
        ]
      },
      "biases": {
        "v": 1,
        "dim": [
          1
        ],
        "data": [
          -0.7722595358072446
        ]
      },
      "activation": "Sigmoid",
      "dropout": null
    }
  ],
  "input_size": 2,
  "loss_function": "BinaryCrossEntropy",
  "optimizer": {
    "Adam": {
      "learning_rate": 0.01,
      "beta1": 0.9,
      "beta2": 0.999,
      "epsilon": 1e-8
    }
  },
  "optimizer_states_weights": [
    {
      "m": {
        "v": 1,
        "dim": [
          5,
          2
        ],
        "data": [
          1.1737337786923736e-11,
          -1.0336520239050047e-11,
          3.4581442393360716e-12,
          2.3099658627068805e-12,
          2.0376912315472458e-11,
          -1.9883976620098568e-11,
          -3.031542450235983e-11,
          -3.755162935695384e-11,
          -3.140440876652069e-12,
          -3.564788871441635e-12
        ]
      },
      "v": {
        "v": 1,
        "dim": [
          5,
          2
        ],
        "data": [
          1.7815394118988361e-19,
          4.010235860196615e-19,
          1.4768381053162224e-20,
          6.434335789638756e-21,
          9.104188169380848e-19,
          5.463925727591284e-19,
          6.228731192816008e-19,
          5.914169978353345e-19,
          1.5256007451437528e-20,
          2.3724128580106596e-20
        ]
      },
      "t": 40000
    },
    {
      "m": {
        "v": 1,
        "dim": [
          1,
          5
        ],
        "data": [
          -8.092337174569325e-11,
          3.5601783170223295e-11,
          7.724731684394738e-11,
          8.682381606571504e-11,
          -3.5495009474780095e-11
        ]
      },
      "v": {
        "v": 1,
        "dim": [
          1,
          5
        ],
        "data": [
          4.522694647748224e-19,
          7.973840782880511e-19,
          2.955284044885368e-19,
          1.8470776384208028e-19,
          8.56040848024365e-19
        ]
      },
      "t": 40000
    }
  ],
  "optimizer_states_biases": [
    {
      "m": {
        "v": 1,
        "dim": [
          5
        ],
        "data": [
          7.278535122377776e-12,
          -2.3317977715236706e-13,
          -6.466780732403131e-12,
          1.807642606307827e-11,
          6.699872802884856e-13
        ]
      },
      "v": {
        "v": 1,
        "dim": [
          5
        ],
        "data": [
          6.120600568134187e-19,
          6.154467230611345e-20,
          1.3546137741436364e-18,
          9.279832594205237e-19,
          1.377641963734532e-19
        ]
      },
      "t": 40000
    },
    {
      "m": {
        "v": 1,
        "dim": [
          1
        ],
        "data": [
          1.6470468327565886e-11
        ]
      },
      "v": {
        "v": 1,
        "dim": [
          1
        ],
        "data": [
          1.1626302461567634e-18
        ]
      },
      "t": 40000
    }
  ],
  "regularization": "None",
  "training_mode": true
}