{
  "layers": [
    {
      "weights": {
        "v": 1,
        "dim": [
          5,
          2
        ],
        "data": [
          -18.616935633197794,
          -14.9961972550477,
          18.117346576786726,
          -13.985811344418778,
          18.153001149108263,
          14.526432828639889,
          -17.837597509500018,
          13.718472891780687,
          -18.952855726364056,
          14.83427815655755
        ]
      },
      "biases": {
        "v": 1,
        "dim": [
          5
        ],
        "data": [
          7.151770131476056,
          6.9515879730918835,
          -6.918691778219265,
          -6.821206885654077,
          -7.379045907958129
        ]
      },
      "activation": "Tanh",
      "dropout": null
    },
    {
      "weights": {
        "v": 1,
        "dim": [
          1,
          5
        ],
        "data": [
          -2.580722077229628,
          -1.2345929740851063,
          1.6451555478586894,
          0.816756248412071,
          1.9782332701749727
        ]
      },
      "biases": {
        "v": 1,
        "dim": [
          1
        ],
        "data": [
          -0.19555704222831566
        ]
      },
      "activation": "Sigmoid",
      "dropout": null
    }
  ],
  "input_size": 2,
  "loss_function": "BinaryCrossEntropy",
  "optimizer": {
    "Adam": {
      "learning_rate": 0.01,
      "beta1": 0.9,
      "beta2": 0.999,
      "epsilon": 1e-8
    }
  },
  "optimizer_states_weights": [
    {
      "m": {
        "v": 1,
        "dim": [
          5,
          2
        ],
        "data": [
          1.4907406823890168e-10,
          1.181396579511393e-10,
          -1.7005107905517983e-10,
          1.158581079491725e-10,
          -1.5077252469862684e-10,
          -1.2089883570424728e-10,
          1.4963622791455502e-10,
          -9.909411875562603e-11,
          1.1890475394876939e-10,
          -7.835383106835959e-11
        ]
      },
      "v": {
        "v": 1,
        "dim": [
          5,
          2
        ],
        "data": [
          2.346825770321312e-19,
          1.274379453217767e-19,
          2.3793044272777835e-19,
          9.931329517861966e-19,
          2.437063159420809e-19,
          1.4381346923254204e-19,
          1.346681730564169e-19,
          6.08903482963709e-19,
          5.970343317662907e-20,
          3.152005115121146e-19
        ]
      },
      "t": 40000
    },
    {
      "m": {
        "v": 1,
        "dim": [
          1,
          5
        ],
        "data": [
          -0.014424390200588777,
          0.014663804568833733,
          0.014424390264477255,
          -0.014663804484885058,
          -0.014663804721371888
        ]
      },
      "v": {
        "v": 1,
        "dim": [
          1,
          5
        ],
        "data": [
          0.12554377861572064,
          0.1255437785774121,
          0.12554377859598245,
          0.1255437785559352,
          0.1255437786197366
        ]
      },
      "t": 40000
    }
  ],
  "optimizer_states_biases": [
    {
      "m": {
        "v": 1,
        "dim": [
          5
        ],
        "data": [
          -2.022988468316704e-11,
          -8.941095911226875e-11,
          2.0387864452334947e-11,
          7.711897545589648e-11,
          6.146987538312658e-11
        ]
      },
      "v": {
        "v": 1,
        "dim": [
          5
        ],
        "data": [
          1.3285824797864414e-18,
          1.570044040437279e-18,
          1.3202815387566895e-18,
          9.448008038366915e-19,
          4.854333219898708e-19
        ]
      },
      "t": 40000
    },
    {
      "m": {
        "v": 1,
        "dim": [
          1
        ],
        "data": [
          0.014514982836808174
        ]
      },
      "v": {
        "v": 1,
        "dim": [
          1
        ],
        "data": [
          0.12554377864917524
        ]
      },
      "t": 40000
    }
  ],
  "regularization": "None",
  "training_mode": true
}