{
  "layers": [
    {
      "weights": {
        "v": 1,
        "dim": [
          5,
          2
        ],
        "data": [
          4.711305285376463,
          -5.294971148193035,
          5.64240623344298,
          5.511499976773541,
          4.243985317223152,
          4.263015744265293,
          -6.587660631154051,
          -6.088452201324146,
          4.947292734800708,
          -4.401673631858537
        ]
      },
      "biases": {
        "v": 1,
        "dim": [
          5
        ],
        "data": [
          -2.3900816953787625,
          -2.578303100451263,
          -6.370622073160598,
          2.899746239070121,
          2.2487989996427955
        ]
      },
      "activation": "Tanh",
      "dropout": null
    },
    {
      "weights": {
        "v": 1,
        "dim": [
          1,
          5
        ],
        "data": [
          11.150954299633344,
          5.970331646295607,
          -11.921192947986809,
          -6.197797834843904,
          -11.220198463214096
        ]
      },
      "biases": {
        "v": 1,
        "dim": [
          1
        ],
        "data": [
          -0.7024397139309169
        ]
      },
      "activation": "Sigmoid",
      "dropout": null
    }
  ],
  "input_size": 2,
  "loss_function": "BinaryCrossEntropy",
  "optimizer": {
    "Adam": {
      "learning_rate": 0.01,
      "beta1": 0.9,
      "beta2": 0.999,
      "epsilon": 1e-8
    }
  },
  "optimizer_states_weights": [
    {
      "m": {
        "v": 1,
        "dim": [
          5,
          2
        ],
        "data": [
          -8.164753129375983e-12,
          6.587203827541049e-12,
          -1.814152472776651e-12,
          -2.0795280991501e-12,
          -1.3693760979946287e-11,
          -1.5615699741228106e-11,
          5.425287992026457e-13,
          1.2979402661729299e-12,
          -9.465995632017789e-12,
          8.756440622800718e-12
        ]
      },
      "v": {
        "v": 1,
        "dim": [
          5,
          2
        ],
        "data": [
          1.0002512795217454e-19,
          3.1193706647628435e-20,
          1.454878644947135e-21,
          2.654733893102913e-21,
          6.35636370507978e-20,
          6.105201290541149e-20,
          1.0590791042044388e-22,
          1.1976915483189817e-21,
          7.367167939612793e-20,
          1.869810411911676e-19
        ]
      },
      "t": 40000
    },
    {
      "m": {
        "v": 1,
        "dim": [
          1,
          5
        ],
        "data": [
          -8.660658245698741e-11,
          -3.554358615995447e-11,
          9.218616141967228e-11,
          3.5868665787213875e-11,
          7.80167834874017e-11
        ]
      },
      "v": {
        "v": 1,
        "dim": [
          1,
          5
        ],
        "data": [
          3.7346634321871493e-19,
          5.5454325460251775e-19,
          1.565095983206886e-19,
          6.581946381067576e-19,
          3.5056570504702864e-19
        ]
      },
      "t": 40000
    }
  ],
  "optimizer_states_biases": [
    {
      "m": {
        "v": 1,
        "dim": [
          5
        ],
        "data": [
          1.8168392871402953e-12,
          -2.069169663672766e-13,
          7.444445368212555e-12,
          -1.8279206143666425e-13,
          -4.494335910131795e-12
        ]
      },
      "v": {
        "v": 1,
        "dim": [
          5
        ],
        "data": [
          1.408534512991716e-19,
          1.4189211862867154e-20,
          9.457635513692838e-20,
          8.273146465667087e-21,
          2.670221377313275e-19
        ]
      },
      "t": 40000
    },
    {
      "m": {
        "v": 1,
        "dim": [
          1
        ],
        "data": [
          1.803550713773401e-11
        ]
      },
      "v": {
        "v": 1,
        "dim": [
          1
        ],
        "data": [
          8.126816125043805e-19
        ]
      },
      "t": 40000
    }
  ],
  "regularization": "None",
  "training_mode": true
}