{
  "network": {
    "layers": [
      {
        "weights": {
          "v": 1,
          "dim": [
            8,
            2
          ],
          "data": [
            -2.2249496626205034,
            -2.6381073505437858,
            4.1812791795964515,
            -3.5273302142884675,
            3.4014510924864925,
            -3.8519560593850697,
            -4.3528914340998766,
            3.8206737470985415,
            4.738746168563266,
            4.495051182256793,
            3.315543778948441,
            3.013061195531568,
            -2.016638562214771,
            -2.427837990073156,
            1.1233355694912646,
            1.7433160833643109
          ]
        },
        "biases": {
          "v": 1,
          "dim": [
            8
          ],
          "data": [
            3.714444625725434,
            1.9328923693804714,
            -1.7178157206216913,
            -2.098352994158993,
            -2.168053780245376,
            -1.4443747775409463,
            3.397804343353834,
            -2.1982100833194878
          ]
        },
        "activation": "Tanh",
        "dropout": null
      },
      {
        "weights": {
          "v": 1,
          "dim": [
            1,
            8
          ],
          "data": [
            4.864087218407308,
            -4.280903475263616,
            6.914051840615994,
            3.6715559999708027,
            4.3420041127258715,
            3.2957943914209196,
            2.840327962517094,
            -0.6495151667998577
          ]
        },
        "biases": {
          "v": 1,
          "dim": [
            1
          ],
          "data": [
            -0.04745368905727478
          ]
        },
        "activation": "Sigmoid",
        "dropout": null
      }
    ],
    "input_size": 2,
    "loss_function": "BinaryCrossEntropy",
    "optimizer": {
      "Adam": {
        "learning_rate": 0.05,
        "beta1": 0.9,
        "beta2": 0.999,
        "epsilon": 1e-8
      }
    },
    "optimizer_states_weights": [
      {
        "m": {
          "v": 1,
          "dim": [
            8,
            2
          ],
          "data": [
            1.2507887606382325e-7,
            9.12558644545819e-8,
            -2.908991889877692e-8,
            1.141864545991347e-7,
            -2.5671963881465527e-7,
            1.0695287707161557e-7,
            2.2892443305356565e-8,
            -7.400125233387092e-8,
            -4.097205730974696e-8,
            -3.571574909046967e-8,
            -1.214512352271729e-7,
            -1.1545571680767636e-7,
            7.819908651486278e-8,
            6.243347301098818e-8,
            -3.0927810647770355e-8,
            -1.2962435521452792e-8
          ]
        },
        "v": {
          "v": 1,
          "dim": [
            8,
            2
          ],
          "data": [
            7.086785067548916e-9,
            7.641507391967557e-9,
            9.326672310821577e-9,
            1.8047011452183314e-8,
            2.6065867260127104e-8,
            1.8091843541709364e-8,
            1.399587485446607e-9,
            3.052815030240684e-9,
            4.249006284153823e-9,
            4.3959718210682085e-9,
            7.255076636105367e-9,
            6.459570461975257e-9,
            2.6471893825152556e-9,
            3.5523519588162658e-9,
            2.561088049475569e-10,
            3.238113496587553e-10
          ]
        },
        "t": 7776
      },
      {
        "m": {
          "v": 1,
          "dim": [
            1,
            8
          ],
          "data": [
            -2.190203167776552e-7,
            6.441516241001982e-7,
            -9.9356298625893e-7,
            -6.547657971314427e-7,
            -8.733961340338859e-7,
            -7.994864060487786e-7,
            -1.8994484894207566e-7,
            3.507340565556433e-8
          ]
        },
        "v": {
          "v": 1,
          "dim": [
            1,
            8
          ],
          "data": [
            1.0723136986478648e-8,
            1.3258715628057072e-7,
            3.965601589337452e-8,
            7.238340335111415e-8,
            2.468602698889235e-7,
            8.119452975499266e-8,
            1.9908695992584983e-8,
            5.570820505074521e-8
          ]
        },
        "t": 7776
      }
    ],
    "optimizer_states_biases": [
      {
        "m": {
          "v": 1,
          "dim": [
            8
          ],
          "data": [
            -2.677953675207294e-7,
            -8.29111916735449e-8,
            2.2218800990705263e-7,
            4.8849912975215306e-8,
            5.017195768372854e-8,
            1.3998250256040688e-7,
            -1.8936569799195305e-7,
            6.821254929891604e-8
          ]
        },
        "v": {
          "v": 1,
          "dim": [
            8
          ],
          "data": [
            1.3623978267818669e-8,
            1.8623187555581818e-8,
            3.4044022331705954e-8,
            3.2987995025537147e-9,
            7.618308147477747e-9,
            1.7915311501722098e-8,
            6.631278313841516e-9,
            6.761787193631878e-10
          ]
        },
        "t": 7776
      },
      {
        "m": {
          "v": 1,
          "dim": [
            1
          ],
          "data": [
            2.4828176853826414e-7
          ]
        },
        "v": {
          "v": 1,
          "dim": [
            1
          ],
          "data": [
            2.2342019185303807e-7
          ]
        },
        "t": 7776
      }
    ],
    "regularization": "None",
    "training_mode": false
  },
  "metadata": {
    "accuracy": 1.0,
    "test_samples": 4,
    "trained_at": "2026-01-22 17:52:49"
  }
}