{
  "network": {
    "layers": [
      {
        "weights": {
          "v": 1,
          "dim": [
            8,
            2
          ],
          "data": [
            4.070438844342221,
            -3.59872039879065,
            2.5198632638598357,
            2.893551277624918,
            -3.6619415157970177,
            4.067150512766381,
            -4.2185309695692705,
            -3.8619237734136362,
            2.997255525525372,
            -2.5234014852477658,
            -0.8130202850799773,
            0.9183851498049383,
            0.393918030187204,
            1.3724559617836498,
            -4.273766851294662,
            -3.516686761670953
          ]
        },
        "biases": {
          "v": 1,
          "dim": [
            8
          ],
          "data": [
            1.9789763051490266,
            -4.139408924764974,
            1.8415937653875614,
            1.8677324974691898,
            1.443255501748951,
            0.551516051935286,
            -1.238403433748057,
            1.7701460444125596
          ]
        },
        "activation": "Tanh",
        "dropout": null
      },
      {
        "weights": {
          "v": 1,
          "dim": [
            1,
            8
          ],
          "data": [
            -4.176672337485939,
            -7.408853685549606,
            -5.844417254669108,
            -4.107889204846316,
            -4.4516491132276235,
            -1.458127765382948,
            -1.9480068169940532,
            -4.36840726197274
          ]
        },
        "biases": {
          "v": 1,
          "dim": [
            1
          ],
          "data": [
            -0.1843070785132462
          ]
        },
        "activation": "Sigmoid",
        "dropout": null
      }
    ],
    "input_size": 2,
    "loss_function": "BinaryCrossEntropy",
    "optimizer": {
      "Adam": {
        "learning_rate": 0.05,
        "beta1": 0.9,
        "beta2": 0.999,
        "epsilon": 1e-8
      }
    },
    "optimizer_states_weights": [
      {
        "m": {
          "v": 1,
          "dim": [
            8,
            2
          ],
          "data": [
            -2.6378018993181007e-8,
            8.329751516897047e-8,
            -9.529034937486115e-8,
            -5.17015307110264e-8,
            1.2624911729056627e-7,
            -5.513228146182436e-8,
            4.564266526610951e-8,
            5.310150429872944e-8,
            -7.878788987850967e-8,
            2.1910389651700154e-7,
            2.1398140481776253e-7,
            -1.5948047828347226e-7,
            -2.456249064712279e-9,
            2.4158880429506303e-8,
            3.590796489026184e-8,
            9.051244606555065e-8
          ]
        },
        "v": {
          "v": 1,
          "dim": [
            8,
            2
          ],
          "data": [
            2.6602856073571722e-9,
            5.37318813461981e-9,
            6.1008688587230835e-9,
            6.002147518157552e-9,
            1.546131867804189e-8,
            1.063232676580568e-8,
            1.1394056585908567e-9,
            1.2601700931430768e-9,
            1.8930497816700116e-8,
            2.6766199171895722e-8,
            2.6694880573659336e-9,
            2.3059246860776992e-9,
            1.3065971995971143e-8,
            1.7186529720253743e-8,
            2.9735665615320118e-9,
            2.10357239245174e-8
          ]
        },
        "t": 7956
      },
      {
        "m": {
          "v": 1,
          "dim": [
            1,
            8
          ],
          "data": [
            4.178951608403075e-7,
            2.6273820989489184e-7,
            6.709746611079847e-7,
            6.105137376000857e-7,
            3.634952148056022e-7,
            2.2289419207525358e-7,
            -1.218073147779256e-8,
            6.043507968686989e-7
          ]
        },
        "v": {
          "v": 1,
          "dim": [
            1,
            8
          ],
          "data": [
            4.906496560435396e-8,
            2.491881696907096e-9,
            6.727368902660977e-8,
            3.4915608817434725e-8,
            2.0641970892292728e-8,
            1.733223363894235e-9,
            7.815332751293722e-9,
            1.1806723244292655e-7
          ]
        },
        "t": 7956
      }
    ],
    "optimizer_states_biases": [
      {
        "m": {
          "v": 1,
          "dim": [
            8
          ],
          "data": [
            -2.8264401486499755e-8,
            2.80684096251283e-7,
            -7.68620287042285e-8,
            -3.7077667250994893e-8,
            -1.0366860806672871e-7,
            -1.3134512652529621e-7,
            1.4126684708310872e-7,
            -4.736934102397379e-8
          ]
        },
        "v": {
          "v": 1,
          "dim": [
            8
          ],
          "data": [
            5.409218388763839e-9,
            1.3215279611092521e-8,
            2.0786927078423604e-8,
            3.5539466088430544e-9,
            4.813029717751639e-8,
            8.028827193834007e-9,
            4.1558034578741903e-8,
            2.5519194219944007e-8
          ]
        },
        "t": 7956
      },
      {
        "m": {
          "v": 1,
          "dim": [
            1
          ],
          "data": [
            8.655694707667921e-8
          ]
        },
        "v": {
          "v": 1,
          "dim": [
            1
          ],
          "data": [
            1.2618802611750343e-7
          ]
        },
        "t": 7956
      }
    ],
    "regularization": "None",
    "training_mode": false
  },
  "metadata": {
    "accuracy": 1.0,
    "test_samples": 4,
    "trained_at": "2026-01-16 20:16:32"
  }
}