{
  "network": {
    "layers": [
      {
        "weights": {
          "v": 1,
          "dim": [
            8,
            2
          ],
          "data": [
            -3.1208255830065252,
            -3.5830151742332452,
            2.20664362721336,
            -2.440022708255473,
            -4.202098617103317,
            -4.578691192337513,
            -4.171030288371217,
            4.208518228303746,
            -3.0422781816554205,
            3.5100087675341385,
            -3.2781527427565287,
            -2.976657449861671,
            3.9028308492672017,
            -3.473851517994147,
            2.7955303119037787,
            2.445737565055547
          ]
        },
        "biases": {
          "v": 1,
          "dim": [
            8
          ],
          "data": [
            1.5572698271929257,
            1.3744954490541588,
            2.076155857296505,
            2.299228236885626,
            1.7145502189236235,
            4.839976015727816,
            1.7633862717582436,
            -4.085172587698595
          ]
        },
        "activation": "Tanh",
        "dropout": null
      },
      {
        "weights": {
          "v": 1,
          "dim": [
            1,
            8
          ],
          "data": [
            -4.1102947188178405,
            -2.516919458262386,
            -3.899449818802789,
            -4.007429477928289,
            -4.348083076843164,
            5.494105505034462,
            -5.352450292917897,
            -3.179207531119919
          ]
        },
        "biases": {
          "v": 1,
          "dim": [
            1
          ],
          "data": [
            -0.09872456312148778
          ]
        },
        "activation": "Sigmoid",
        "dropout": null
      }
    ],
    "input_size": 2,
    "loss_function": "BinaryCrossEntropy",
    "optimizer": {
      "Adam": {
        "learning_rate": 0.05,
        "beta1": 0.9,
        "beta2": 0.999,
        "epsilon": 1e-8
      }
    },
    "optimizer_states_weights": [
      {
        "m": {
          "v": 1,
          "dim": [
            8,
            2
          ],
          "data": [
            5.690449109013977e-8,
            3.350720281457098e-8,
            -6.367289791025624e-8,
            5.1610747689803945e-8,
            1.8582375217002272e-8,
            1.2525687270659785e-8,
            2.0000736090943393e-8,
            -1.11667960474421e-8,
            7.545273763846814e-8,
            -1.6331191775240166e-8,
            1.1601979110977054e-8,
            2.6741354907563597e-8,
            -1.9773595183301578e-8,
            5.986269766127239e-8,
            -7.564687600563758e-9,
            -2.5287182056854365e-8
          ]
        },
        "v": {
          "v": 1,
          "dim": [
            8,
            2
          ],
          "data": [
            3.220751413929837e-9,
            2.0308134648465675e-9,
            5.98844612592549e-10,
            3.280025929000544e-10,
            2.779235498726708e-10,
            2.4557056578656387e-10,
            1.6544790280654563e-10,
            1.3996110840107638e-10,
            5.718528460359562e-9,
            2.8822925513485562e-9,
            3.003568736765377e-10,
            2.812369241801583e-10,
            3.775583451640195e-9,
            7.78804901590371e-9,
            5.157508291698497e-10,
            4.558217833945388e-10
          ]
        },
        "t": 9540
      },
      {
        "m": {
          "v": 1,
          "dim": [
            1,
            8
          ],
          "data": [
            2.6006330584432497e-7,
            2.0622499236760373e-7,
            2.756848292226275e-7,
            1.8529180943673658e-7,
            1.7091201444663464e-7,
            -1.0900997346039311e-7,
            2.4612118666555534e-7,
            9.586371276242262e-8
          ]
        },
        "v": {
          "v": 1,
          "dim": [
            1,
            8
          ],
          "data": [
            1.6707152277990298e-8,
            3.025423203634563e-9,
            1.8901504931196335e-8,
            5.224681813938259e-9,
            1.149429922982763e-8,
            6.957639333549666e-10,
            2.5820197594259213e-8,
            3.808670065066786e-9
          ]
        },
        "t": 9540
      }
    ],
    "optimizer_states_biases": [
      {
        "m": {
          "v": 1,
          "dim": [
            8
          ],
          "data": [
            -1.1973634686342748e-8,
            -3.486369219873497e-8,
            -5.285781567007601e-9,
            -4.207457552548013e-9,
            -5.441498944714284e-9,
            -4.942659434205159e-8,
            -3.104898435314726e-8,
            4.5892262857396973e-8
          ]
        },
        "v": {
          "v": 1,
          "dim": [
            8
          ],
          "data": [
            4.548567414082407e-9,
            7.536063569535261e-10,
            5.620285656589284e-10,
            2.283057706118896e-10,
            4.479113597224094e-9,
            5.267440357393525e-10,
            7.502981105338935e-9,
            8.756515340989913e-10
          ]
        },
        "t": 9540
      },
      {
        "m": {
          "v": 1,
          "dim": [
            1
          ],
          "data": [
            2.1626979195071333e-8
          ]
        },
        "v": {
          "v": 1,
          "dim": [
            1
          ],
          "data": [
            2.6909498393457454e-8
          ]
        },
        "t": 9540
      }
    ],
    "regularization": "None",
    "training_mode": false
  },
  "metadata": {
    "accuracy": 1.0,
    "test_samples": 4,
    "trained_at": "2026-01-16 20:38:29"
  }
}