{
  "network": {
    "layers": [
      {
        "weights": {
          "v": 1,
          "dim": [
            8,
            2
          ],
          "data": [
            0.5856816341992923,
            -0.3976985131033094,
            -3.4017397768071866,
            3.122487592003276,
            -4.407983930808005,
            4.5477966921218655,
            3.518619697013751,
            2.844642538941125,
            0.4393597597033111,
            -0.46483168160941263,
            4.366382084638227,
            4.753459691545011,
            -3.4302889015638796,
            3.35891618128634,
            1.4844252701650023,
            0.6907240793119065
          ]
        },
        "biases": {
          "v": 1,
          "dim": [
            8
          ],
          "data": [
            -0.6720254164485874,
            2.0386045613500956,
            -2.2841125039300576,
            -5.069829077560457,
            -0.692611862268363,
            -2.1895066475684697,
            2.0214635996414914,
            -2.1430092153928193
          ]
        },
        "activation": "Tanh",
        "dropout": null
      },
      {
        "weights": {
          "v": 1,
          "dim": [
            1,
            8
          ],
          "data": [
            -1.116690166456108,
            -4.44095795638894,
            7.248889818586882,
            -6.639042532892737,
            -0.8510024331644573,
            6.185235725612326,
            -5.000383876030394,
            -1.4056352606789484
          ]
        },
        "biases": {
          "v": 1,
          "dim": [
            1
          ],
          "data": [
            0.03761368098303684
          ]
        },
        "activation": "Sigmoid",
        "dropout": null
      }
    ],
    "input_size": 2,
    "loss_function": "BinaryCrossEntropy",
    "optimizer": {
      "Adam": {
        "learning_rate": 0.05,
        "beta1": 0.9,
        "beta2": 0.999,
        "epsilon": 1e-8
      }
    },
    "optimizer_states_weights": [
      {
        "m": {
          "v": 1,
          "dim": [
            8,
            2
          ],
          "data": [
            5.3973330804996345e-8,
            1.0095035710469151e-7,
            9.097394117487596e-8,
            -6.19522845933214e-8,
            4.8526152992092266e-8,
            -1.0654313834585159e-7,
            -5.3132477004403736e-8,
            -6.347424311131396e-8,
            5.3049635913960516e-8,
            7.434090274412106e-8,
            -4.6361463967195846e-8,
            -7.327774832087011e-8,
            1.1040369828744565e-7,
            -4.852912812581479e-8,
            -3.588365449755162e-8,
            -3.6062528968627305e-8
          ]
        },
        "v": {
          "v": 1,
          "dim": [
            8,
            2
          ],
          "data": [
            6.305126075745726e-9,
            8.243438363027163e-9,
            2.9860724351319543e-9,
            3.3549188875773187e-9,
            2.9293269777326227e-9,
            5.582096566812553e-9,
            9.329335139537123e-10,
            1.389173666991977e-9,
            1.171527349023643e-9,
            1.8252188786834167e-9,
            4.315460591083393e-9,
            4.580519398641112e-9,
            8.80450967276532e-9,
            7.57592483809072e-9,
            2.361325969194745e-9,
            3.312868090631154e-9
          ]
        },
        "t": 8856
      },
      {
        "m": {
          "v": 1,
          "dim": [
            1,
            8
          ],
          "data": [
            5.190468424011419e-8,
            2.441504883378468e-7,
            -9.73830493281385e-7,
            2.207224464867369e-7,
            6.383462700041551e-8,
            -1.0244373033204268e-6,
            2.4731576652654095e-7,
            3.9787623521632873e-8
          ]
        },
        "v": {
          "v": 1,
          "dim": [
            1,
            8
          ],
          "data": [
            5.012955678401905e-9,
            6.370282860356889e-9,
            3.471953316650132e-8,
            1.3851530143133346e-9,
            6.38294267028831e-10,
            8.344518325099187e-8,
            1.478013197734013e-8,
            3.782141426117174e-9
          ]
        },
        "t": 8856
      }
    ],
    "optimizer_states_biases": [
      {
        "m": {
          "v": 1,
          "dim": [
            8
          ],
          "data": [
            -1.122047449167454e-7,
            -5.951760371813486e-8,
            4.6021533863990395e-8,
            9.952019601922712e-8,
            -8.769182059239966e-8,
            3.696162589780437e-8,
            -6.486420041673619e-8,
            6.507644319820006e-8
          ]
        },
        "v": {
          "v": 1,
          "dim": [
            8
          ],
          "data": [
            1.3078760332140515e-8,
            5.026158684823968e-9,
            4.4340735006090105e-9,
            1.995067234460641e-9,
            2.6814216204298086e-9,
            7.607178888150423e-9,
            1.1467286045425258e-8,
            5.0692380869920286e-9
          ]
        },
        "t": 8856
      },
      {
        "m": {
          "v": 1,
          "dim": [
            1
          ],
          "data": [
            -1.2065122284442963e-8
          ]
        },
        "v": {
          "v": 1,
          "dim": [
            1
          ],
          "data": [
            5.620184845932097e-8
          ]
        },
        "t": 8856
      }
    ],
    "regularization": "None",
    "training_mode": false
  },
  "metadata": {
    "accuracy": 1.0,
    "test_samples": 4,
    "trained_at": "2026-01-16 20:06:59"
  }
}